5951 50
https -0.050939772 -0.05941969 0.017445002 0.10390716 -0.105770305 -0.20569463 0.19955717 0.2102054 -0.27380916 -0.071365885 0.044226337 -0.21361203 0.06665844 0.08415066 -0.09989349 0.16112751 0.23903073 -0.03871652 -0.23470537 -0.20848314 0.05324256 0.20778756 0.37195757 -0.07720456 0.18656611 0.15447962 -0.08010739 0.04898844 -0.20598805 -0.024386154 -0.01223396 0.055575933 -0.06814263 0.017584603 -0.1476601 0.09551732 0.1354561 -0.054258857 0.07269875 -0.11949372 0.20705122 -0.019456763 -0.104228005 0.0861493 0.37577295 0.060666952 -0.15500227 -0.071315736 0.11763215 0.2324689
learning -0.10258515 -0.09112175 0.008554305 0.14664863 -0.13229257 -0.33542934 0.3211594 0.31131765 -0.4511291 -0.085015915 0.048071664 -0.35309047 0.12192222 0.1033203 -0.15389793 0.28774923 0.3903189 -0.06056413 -0.37491912 -0.31633827 0.079326876 0.35023376 0.60412896 -0.15426941 0.30258787 0.27895498 -0.11337843 0.060920075 -0.32836884 -0.043737672 0.0034411438 0.105496876 -0.14160708 0.07021244 -0.25311238 0.1744228 0.21252778 -0.07997112 0.11395859 -0.16668999 0.39076853 -0.048552785 -0.14106685 0.16340822 0.65473074 0.11191615 -0.25877672 -0.16880852 0.18409966 0.37744477
distance -0.08725198 -0.072506845 0.022338565 0.12590115 -0.10809191 -0.2830487 0.26263875 0.27984443 -0.3757988 -0.10134063 0.039450917 -0.31388104 0.09633061 0.11315964 -0.12094003 0.2420899 0.34282598 -0.040058948 -0.3117507 -0.26608384 0.06270312 0.26781163 0.5175727 -0.13318232 0.25871578 0.22915007 -0.117253646 0.06403346 -0.26881585 -0.009018124 0.023229545 0.07442847 -0.12063897 0.029243203 -0.18818808 0.14393018 0.18361785 -0.042977095 0.119388156 -0.13020274 0.32856652 -0.056516375 -0.13962604 0.13278832 0.5159109 0.09833012 -0.18229865 -0.1295972 0.153544 0.30380747
education -0.054544803 -0.122126006 0.006367498 0.14195475 -0.14425373 -0.27710587 0.30595258 0.30728447 -0.40930316 -0.07624259 0.02304356 -0.3187172 0.11993541 0.094972834 -0.12755184 0.2725914 0.3724847 -0.09981169 -0.32205582 -0.27231538 0.042364467 0.29204896 0.556415 -0.115667574 0.26570183 0.23167711 -0.13470049 0.030450208 -0.27557328 -0.017764082 -0.007127037 0.09884364 -0.1454025 0.051154066 -0.22208107 0.16334096 0.17228998 -0.08603644 0.13265051 -0.17826487 0.3518888 -0.044094436 -0.11771879 0.12949593 0.5655504 0.10370404 -0.21604769 -0.14479993 0.1401215 0.33621675
coronavirus -0.045520626 -0.0636264 -0.011319496 0.087672964 -0.07698203 -0.18088971 0.1863151 0.20296721 -0.2910708 -0.050547104 0.01664408 -0.22279339 0.10845749 0.07461958 -0.07462242 0.16594888 0.24961431 -0.039767154 -0.2435238 -0.19855635 0.016905969 0.19675766 0.35781816 -0.10486039 0.19275732 0.15447854 -0.0628951 0.03212251 -0.20504951 0.0035921463 0.02117686 0.04335025 -0.119143985 0.037763428 -0.16930525 0.10601948 0.11285418 -0.03911355 0.090871796 -0.116262 0.22209947 -0.022780271 -0.08062437 0.10993906 0.38966858 0.07754153 -0.14971426 -0.09834171 0.09823383 0.21615985
online -0.04912952 -0.08229629 -0.010485041 0.08594949 -0.12474218 -0.23186225 0.21166852 0.20896058 -0.3173526 -0.079193056 0.039913226 -0.25009605 0.113747865 0.08082726 -0.11617267 0.21465729 0.283939 -0.0551197 -0.26713595 -0.20094202 0.044440888 0.24193594 0.4173479 -0.09308272 0.1903128 0.19812742 -0.066198505 0.035641376 -0.22163606 -0.007876929 0.011411081 0.049858183 -0.12960972 0.045850728 -0.1643388 0.111318365 0.1185169 -0.06462125 0.108881235 -0.124426834 0.25259644 -0.017632391 -0.07024386 0.09968181 0.44306 0.085112184 -0.15692881 -0.10142128 0.1354193 0.2308439
students -0.06470405 -0.048085906 0.0066763787 0.08772359 -0.08583593 -0.2073912 0.19776852 0.21149248 -0.25872022 -0.07980631 0.045599967 -0.20909597 0.09523836 0.05942741 -0.070883624 0.17276381 0.25651857 -0.07035158 -0.24256502 -0.17816886 0.040176198 0.20405076 0.38753325 -0.068367764 0.15963283 0.17048942 -0.06689492 0.033303235 -0.1883275 -0.00787828 0.005962216 0.054521944 -0.11812129 0.03812876 -0.14352123 0.1297196 0.13384882 -0.05659062 0.062813185 -0.0904805 0.24346076 -0.0137967 -0.06931556 0.0917754 0.39768982 0.0733199 -0.14774854 -0.09737667 0.10185749 0.21816081
smarterthingsouhsd -0.0018488315 0.0069015077 -0.019705936 -0.018575687 -0.017389929 -0.022329228 0.02407671 0.0462708 -0.01374286 -0.022636734 0.013965979 -0.012556739 0.016124964 0.0082669 -0.0009916667 -0.005002595 0.029847955 0.0449731 -0.02689562 -0.044370826 0.028365932 0.008726906 0.038917877 0.020235457 0.018930664 0.010424886 -0.01706833 0.044881083 -0.038052097 -0.014932445 -0.021555457 0.018773535 0.021169892 -0.0025149279 -0.012980727 -0.0075523197 0.04836899 0.008816865 -0.012275792 -0.031508625 0.004035943 -0.010475955 -0.02541637 0.0037921658 0.068692766 0.0002893163 0.009208749 -0.029763754 0.0070443554 0.00998606
badge -0.042497035 -0.0007714989 -0.009455294 0.013227376 -0.0049776784 -0.038046587 0.0539584 0.057824053 -0.08281845 0.002008788 -0.0031403431 -0.043480225 -0.02196764 0.023760052 -0.042682867 0.021651154 0.058860242 0.03200725 -0.04451307 -0.06766122 0.023013497 0.02718028 0.12451665 0.007915861 0.04410263 0.048939455 -0.013950996 0.04856461 -0.07901372 -0.015942518 0.013134816 0.020623337 -0.002163952 -0.03276843 -0.008748718 -0.0015810274 0.039067 0.0004548138 0.001202199 -0.021735007 0.06343905 -0.032746334 -0.06334075 0.05277683 0.12003986 -0.009946633 -0.020027757 -0.024435475 0.049119186 0.041054215
unlocked -0.016329639 0.0035873838 0.03309204 0.0128712 -0.026449032 -0.08325671 0.037433803 0.045203086 -0.08792589 -0.037291452 0.026724702 -0.08506156 0.01900432 0.029300813 -0.04229179 0.040002618 0.10739261 0.03481075 -0.082098916 -0.045973696 0.010986 0.07606866 0.11800488 -0.011078358 0.068652675 0.07342615 -0.030502323 0.059716184 -0.05318345 -0.04316247 -0.023825621 -0.0025865028 0.0020466943 -0.01485242 -0.059896845 -0.0031329936 0.07517734 -0.007300294 -0.014018767 -0.046799786 0.07816257 -0.025758129 -0.030887581 0.022593442 0.14248857 -0.0041354424 -0.017237997 -0.017632503 0.043497946 0.080277815
pandemic -0.0513142 -0.05034855 0.00078043103 0.047845982 -0.091866165 -0.1499439 0.15519129 0.15389979 -0.218312 -0.060593203 0.009391622 -0.16622674 0.051212978 0.03349547 -0.07416598 0.11520763 0.16579266 -0.059954748 -0.17498451 -0.14600956 0.006601651 0.1540076 0.29067385 -0.050091583 0.119372375 0.11573823 -0.053360503 -0.0058913045 -0.14000452 0.011523321 0.020054344 0.027189575 -0.08730927 0.016763028 -0.11179039 0.10503898 0.09743281 -0.022413196 0.07670615 -0.09199646 0.19647704 -0.035352048 -0.07403845 0.06673797 0.28319585 0.044645008 -0.11729563 -0.054937147 0.078069285 0.16137658
school -0.044204876 -0.08749615 0.023436792 0.11302517 -0.119458385 -0.20527288 0.22389615 0.19225405 -0.30268827 -0.08245969 0.045830328 -0.23133273 0.11015453 0.058994338 -0.08878301 0.19384068 0.2523222 -0.056148585 -0.2551382 -0.22503017 0.044099327 0.23081954 0.40530303 -0.08114023 0.18742701 0.1921358 -0.10301063 0.03367159 -0.20495552 -0.0004958956 0.021302907 0.051749617 -0.09527248 0.025082966 -0.16103248 0.10060111 0.112766795 -0.024607986 0.08308282 -0.112101026 0.26794067 -0.009866233 -0.10429962 0.0965191 0.42401737 0.08024233 -0.16448738 -0.11823429 0.120895624 0.22134459
covid -0.022906858 -0.06313245 0.005801476 0.076512724 -0.077850185 -0.16084927 0.1688653 0.16039254 -0.22913246 -0.053480707 0.035323583 -0.173355 0.06937323 0.07886688 -0.08474157 0.1419111 0.21389608 -0.03134472 -0.18188713 -0.17647229 0.031924494 0.16272207 0.3189003 -0.06938491 0.14882296 0.1418823 -0.06883356 0.011191679 -0.15694478 -0.011016638 0.018240482 0.067295015 -0.082903884 0.039125517 -0.13657635 0.09220436 0.080712415 -0.053300902 0.055314563 -0.109515816 0.20656364 -0.033920392 -0.05177691 0.06489059 0.31946123 0.07383836 -0.14006962 -0.09752673 0.08006775 0.17550115
schools -0.034602135 -0.06801034 -0.013766153 0.072925024 -0.08812426 -0.16639125 0.13876048 0.12998863 -0.21858972 -0.06543294 0.021007035 -0.17167878 0.07955291 0.059159838 -0.07374681 0.14456898 0.16605109 -0.051411852 -0.18247281 -0.15419061 0.023392554 0.16743782 0.268465 -0.05484589 0.14817931 0.10899774 -0.05141726 0.030735789 -0.14985125 0.008044573 0.017105805 0.032969683 -0.091100916 0.036883425 -0.115610346 0.070032835 0.10657881 -0.042574216 0.04761784 -0.08493723 0.17050156 -0.019214572 -0.069599316 0.071164206 0.28438613 0.053214878 -0.09773528 -0.08159846 0.07741733 0.176589
distancelearning -0.014015462 -0.0543466 0.022596532 0.07726169 -0.07380876 -0.13256295 0.13722332 0.12498736 -0.19613996 -0.05822909 0.016532626 -0.1486597 0.06931394 0.04324647 -0.060677573 0.12684675 0.17102991 -0.037857283 -0.16524155 -0.15264869 0.026379589 0.1534143 0.25273508 -0.0794539 0.104476236 0.124950625 -0.06350589 0.03136161 -0.1463857 0.010712979 -0.011245538 0.04922831 -0.07030568 0.012745941 -0.10726598 0.070968084 0.06592126 -0.029983936 0.041434262 -0.072062545 0.1787044 -0.02396408 -0.05799983 0.07463648 0.2759129 0.031587154 -0.119308636 -0.06839057 0.09260343 0.15135987
children -0.050349455 -0.05461749 0.023606243 0.052513428 -0.083113834 -0.13434571 0.12673901 0.16298018 -0.21061946 -0.036077645 0.03619256 -0.17326292 0.062774554 0.0772214 -0.06141085 0.1523391 0.1631285 -0.022673065 -0.17482214 -0.16454543 0.03596928 0.1552798 0.2917961 -0.076930426 0.1279402 0.131925 -0.045832995 0.008895137 -0.14151974 -0.024107354 -0.0099269515 0.045195375 -0.09923242 0.038361516 -0.11314588 0.08259298 0.09692236 -0.010054991 0.08676763 -0.090490304 0.18596452 -0.028587539 -0.08098235 0.09090939 0.2883564 0.049897633 -0.12291543 -0.082152426 0.0924808 0.1608037
student -0.051873226 -0.028379614 0.012756915 0.08250641 -0.0503936 -0.1288425 0.15206735 0.12472217 -0.19898999 -0.03448458 0.024998624 -0.16004285 0.07833542 0.041467287 -0.04146693 0.12334719 0.14990063 -0.045124594 -0.16988346 -0.13661714 0.02606324 0.16158669 0.2702531 -0.073316224 0.1279249 0.11741671 -0.059054714 -0.0022597602 -0.13010806 -0.0214381 0.017586553 0.02957536 -0.05887034 0.04939142 -0.1035217 0.08556753 0.07386575 -0.013910566 0.06424289 -0.093824595 0.1561056 -0.009814224 -0.05456124 0.06301722 0.25706324 0.04185783 -0.10140276 -0.055156697 0.06544137 0.14161621
new -0.032251053 -0.04807736 0.003013483 0.052670725 -0.05715353 -0.14395478 0.13946013 0.13942082 -0.17947762 -0.05678437 0.004476182 -0.16257428 0.08048008 0.04680172 -0.08297942 0.12222791 0.15963173 -0.028534247 -0.17871185 -0.12822019 0.006431584 0.14720827 0.26984695 -0.0448292 0.1095008 0.102077305 -0.06841477 0.0016289239 -0.15502532 -0.0090897055 0.003172076 0.028449876 -0.058232334 0.03393352 -0.09381188 0.08119565 0.083946474 -0.04647152 0.05301931 -0.069172926 0.15301226 -0.015599314 -0.05138773 0.06418213 0.28846213 0.06442329 -0.10269223 -0.051744603 0.087591544 0.14363018
amp -0.050373908 -0.071572855 -0.008550841 0.09470971 -0.08547116 -0.18637954 0.1576837 0.1811977 -0.24188913 -0.06320238 0.026023295 -0.19571075 0.073084675 0.064866595 -0.0847087 0.17050636 0.21373247 -0.070194356 -0.18225172 -0.18020472 0.034044083 0.18841092 0.30725592 -0.081299014 0.17147 0.13491496 -0.08385472 0.0413837 -0.16989517 -0.019173913 0.0215164 0.062319282 -0.07939449 0.055283383 -0.14755799 0.10665747 0.104333766 -0.028018128 0.075218886 -0.08556007 0.2124042 -0.0091139 -0.07723645 0.074932225 0.33003846 0.06379947 -0.1395609 -0.068507865 0.102084555 0.20770086
nt -0.027761681 -0.032222692 0.0021222008 0.080548115 -0.061881162 -0.1580599 0.12812887 0.13600308 -0.18436189 -0.04898153 0.01338336 -0.13976964 0.083426945 0.049235325 -0.075041264 0.11821794 0.16027343 -0.06184943 -0.15831678 -0.14716426 0.031352438 0.16113563 0.25280127 -0.08386571 0.13042988 0.10478075 -0.05313599 0.009204201 -0.12278901 -0.0038739513 0.011352208 0.038078357 -0.07694691 0.046809066 -0.10535411 0.067926496 0.06669063 -0.02690846 0.072463565 -0.066425055 0.14965609 0.00029123045 -0.049430367 0.08599067 0.2936813 0.032454964 -0.12808959 -0.05623915 0.09592156 0.16549903
kids -0.017474718 -0.05219269 0.022346484 0.04722991 -0.0853071 -0.15753382 0.12936889 0.15295705 -0.20488115 -0.061301418 0.0367904 -0.1648317 0.08093278 0.043131113 -0.058675457 0.13837546 0.17697611 -0.04825584 -0.15674308 -0.15737426 0.0203506 0.14318062 0.27995008 -0.07038367 0.11672307 0.12849991 -0.05852169 0.011122756 -0.12444506 0.0033989914 -0.0025176867 0.045218956 -0.05491407 0.046421442 -0.09578596 0.09006217 0.087793626 -0.035709955 0.048002277 -0.07994591 0.165857 -0.019485857 -0.07293569 0.08534287 0.26153475 0.03343931 -0.116763085 -0.07163203 0.06237838 0.1608732
teachers -0.042984117 -0.047491614 -0.010984976 0.066737115 -0.059123334 -0.13602944 0.11781616 0.13076948 -0.16997291 -0.03504858 0.00077881926 -0.15644707 0.064833775 0.05390813 -0.08107056 0.12968437 0.1444948 -0.05738457 -0.14723755 -0.13802657 0.03170815 0.16084515 0.24165797 -0.040060215 0.12466409 0.13377683 -0.042920925 -0.00068712886 -0.13761827 0.00746069 0.015251428 0.059398517 -0.055546407 0.045741364 -0.12346941 0.08472996 0.067881815 -0.023310635 0.0692155 -0.065711275 0.17610951 -0.013142039 -0.059059456 0.0770688 0.24783586 0.045348577 -0.084574826 -0.07501347 0.08098267 0.13427137
year -0.015677368 -0.033894278 0.010616937 0.08109559 -0.069296345 -0.16462138 0.14350039 0.1642122 -0.21745025 -0.05647406 0.031475794 -0.16089393 0.06417373 0.04786408 -0.056892477 0.124419615 0.17482989 -0.058274798 -0.18171869 -0.16587883 0.019693036 0.14157481 0.28395584 -0.08530439 0.11593861 0.11092189 -0.074545614 0.03419692 -0.14058715 -0.0045501175 -0.0026084536 0.0330833 -0.07569307 0.03224808 -0.114683576 0.088339455 0.08870994 -0.031973686 0.046093382 -0.0950225 0.1627333 -0.022022061 -0.060383562 0.08930909 0.28779837 0.045344703 -0.09764545 -0.070931636 0.07596837 0.18626915
home -0.027079787 -0.060942214 0.016107513 0.0739654 -0.08176167 -0.13997844 0.13807163 0.15159075 -0.19788831 -0.04937392 0.023244314 -0.15087968 0.064042464 0.043731995 -0.077510945 0.1406748 0.18387568 -0.023623338 -0.17679836 -0.13030452 0.018768026 0.16806567 0.26450193 -0.04941439 0.13286296 0.13004312 -0.06945826 0.03364039 -0.13986887 -0.012759595 0.0018545339 0.062286492 -0.08738197 0.023963394 -0.0911064 0.079333596 0.068941936 -0.045471262 0.07977185 -0.06492989 0.1751759 -0.025703868 -0.075938515 0.077690534 0.28539944 0.034219943 -0.12474969 -0.07360527 0.06411121 0.15034866
time -0.04035503 -0.057969116 0.026133206 0.04623979 -0.059278972 -0.13233826 0.135176 0.1605279 -0.17603853 -0.057438124 0.007974068 -0.17068084 0.045433234 0.04473075 -0.078769006 0.110181734 0.17453426 -0.0337535 -0.15005694 -0.14587802 0.01727393 0.15228112 0.26707244 -0.046485648 0.12848884 0.13487841 -0.07393741 0.03828249 -0.1448289 0.0106502585 -0.0115009565 0.048489477 -0.06999075 0.029341588 -0.11857619 0.060457956 0.06915351 -0.047382638 0.062442042 -0.07791724 0.1660629 -0.004341686 -0.065670826 0.068983175 0.25919113 0.027194602 -0.09105714 -0.079094194 0.064427726 0.16970508
many -0.01550938 -0.05793297 0.006749515 0.046015568 -0.05838769 -0.13991994 0.11862264 0.13188304 -0.1612859 -0.02751063 -0.002788961 -0.154939 0.07348957 0.051270355 -0.0671706 0.11597229 0.17499231 -0.03996296 -0.16585924 -0.12325588 0.037656724 0.14734954 0.24759118 -0.06847439 0.11511693 0.107098326 -0.041198764 -0.0002727311 -0.1416327 -0.004788238 -0.012788448 0.053027153 -0.0679514 0.04650568 -0.10860068 0.07265066 0.09123173 -0.034990482 0.043618586 -0.06835558 0.15817317 -0.021644542 -0.039501056 0.047519 0.2560908 0.044978134 -0.08276365 -0.04868456 0.08513182 0.16203517
back -0.04369261 -0.0133418655 -0.011733144 0.041845318 -0.060014028 -0.110817194 0.07961323 0.08348951 -0.14720622 -0.035768453 0.0032876683 -0.09584931 0.025419548 0.025373427 -0.025949668 0.10548365 0.13526523 -0.021903971 -0.114414 -0.11254402 0.030980807 0.11104127 0.202328 -0.033112783 0.106823176 0.104190685 -0.0618728 -0.0028005945 -0.0967078 0.010117468 0.018079016 0.043352522 -0.037008494 0.011913536 -0.06349157 0.049724694 0.038304824 -0.0012040345 0.044240136 -0.061356295 0.11577746 -0.021557631 -0.032710858 0.05911361 0.18878146 0.019173713 -0.08633348 -0.049113315 0.06707335 0.107795544
health -0.026559267 -0.035570394 -0.010843975 0.054777823 -0.05675424 -0.10778313 0.12012138 0.10892509 -0.16013984 -0.020648124 0.026256686 -0.110470556 0.059044432 0.059218906 -0.034698617 0.098178506 0.15427014 -0.02324766 -0.117126055 -0.11248667 0.015362023 0.10901961 0.1902239 -0.043706995 0.12054049 0.1128469 -0.049502842 0.027512496 -0.10112303 -0.013616306 0.006655114 0.02359676 -0.03999234 0.035035096 -0.07865578 0.07258954 0.084461525 -0.009803594 0.04553044 -0.07877953 0.1511806 0.0006517109 -0.042793673 0.05115313 0.20401709 0.029258711 -0.067733556 -0.059968583 0.04883845 0.14696182
like -0.013619792 -0.02213539 0.008068854 0.03779747 -0.04115445 -0.13230756 0.1312196 0.13135928 -0.14870715 -0.060278293 0.03691832 -0.15330064 0.03983585 0.026448205 -0.06760527 0.124794595 0.16627517 -0.040326033 -0.13226785 -0.12713249 0.039187387 0.14021872 0.22782046 -0.061840188 0.0960686 0.11278232 -0.04610267 0.010630244 -0.104123585 -0.015773568 -0.015637023 0.0320865 -0.061623797 0.012583566 -0.10415136 0.051126994 0.0913592 -0.010861546 0.049674127 -0.05363346 0.16216177 -0.01758899 -0.037354123 0.069076605 0.24796383 0.056269374 -0.10355936 -0.063102715 0.06888165 0.1469131
need -0.018253913 -0.028116334 0.012058223 0.034945685 -0.06044645 -0.12557338 0.12700595 0.121457264 -0.15119934 -0.02661124 -0.0013054477 -0.13362177 0.055507414 0.05347999 -0.040585864 0.1119809 0.12812823 -0.04119857 -0.12608796 -0.1130182 0.008839611 0.09915105 0.21865001 -0.051838238 0.09607212 0.074829854 -0.024399688 0.014318417 -0.10473568 0.0015650146 -0.012147842 0.037701085 -0.05160235 0.0067127594 -0.0747083 0.06795586 0.078990676 -0.011211096 0.040512495 -0.07660943 0.14543886 -0.009908904 -0.035048373 0.06813158 0.21693462 0.024818987 -0.08620032 -0.034881014 0.045381445 0.14320388
us -0.044567347 -0.034510136 0.0086811315 0.07208441 -0.07128756 -0.13327757 0.10834078 0.13172352 -0.17975873 -0.02212696 0.0084143495 -0.15584193 0.045087993 0.0586779 -0.06970323 0.10023145 0.13324307 -0.025348065 -0.13567892 -0.11512277 0.016204638 0.14241594 0.21908416 -0.05845893 0.099544905 0.10210244 -0.05442316 0.031323716 -0.12112618 -0.02278859 -0.0083880825 0.024684442 -0.060134076 0.04747735 -0.10706135 0.087531775 0.08978551 -0.041683104 0.033562414 -0.0493297 0.16541854 -0.024826415 -0.06524394 0.077036686 0.24816012 0.057970367 -0.1123294 -0.07918878 0.07237455 0.11937566
due -0.03255608 -0.04294488 0.022011416 0.06417818 -0.053919204 -0.08796198 0.11468964 0.09635841 -0.119737 -0.017038291 0.017592015 -0.11763979 0.033900358 0.031690817 -0.028319186 0.0775039 0.11416587 -0.010175194 -0.10721871 -0.085945874 0.0012981965 0.10297407 0.19758964 -0.05479093 0.10622608 0.103714295 -0.040239513 0.00640963 -0.09839529 -0.014881907 -0.013918553 0.027929794 -0.058935165 0.03301397 -0.091052346 0.06833303 0.043735027 -0.038099293 0.06092988 -0.038709346 0.112992 -0.0054048807 -0.052582093 0.030984003 0.18299666 0.049569007 -0.06487484 -0.028170353 0.07071021 0.1269583
university -0.026362443 -0.06295699 0.012047421 0.055337157 -0.046902295 -0.12057732 0.115259595 0.1391726 -0.16787504 -0.039944366 0.0066140634 -0.15391155 0.038531397 0.062477503 -0.07410998 0.13012113 0.1302075 -0.039005604 -0.14564385 -0.13947602 0.039848097 0.1440095 0.23619376 -0.045172255 0.110923976 0.12225871 -0.035002768 -0.0060730795 -0.13100539 -0.0072174845 0.010582458 0.0301798 -0.063275225 0.01220652 -0.08827526 0.08211859 0.08165551 -0.033847135 0.033545088 -0.08760221 0.14656126 -0.030860234 -0.064720504 0.073632956 0.25422 0.046340726 -0.112043075 -0.071215235 0.08471303 0.14586116
teaching -0.029446257 -0.04185556 0.0029908232 0.043351635 -0.032415267 -0.07323617 0.06404165 0.05762928 -0.12153135 -0.025400663 0.019190006 -0.07643457 0.03850418 0.03895034 -0.03720452 0.07932077 0.07619361 -0.008610512 -0.077327065 -0.06477969 0.027378216 0.10051088 0.14715418 -0.038248196 0.07155562 0.04606685 -0.0143721625 -0.0047984216 -0.05994934 -0.011432133 0.0038505194 0.005781389 -0.061642837 0.0022131559 -0.07583749 0.045117144 0.029017748 -0.026670935 0.022382868 -0.05270265 0.10748188 -4.2250605e-05 -0.013002385 0.05305498 0.13917632 0.041819695 -0.07962697 -0.04223956 0.02609242 0.096263036
people -0.020300228 -0.019301537 0.009665522 0.030708868 -0.0317956 -0.11017479 0.11495725 0.10336203 -0.14325449 -0.041399274 0.0041311802 -0.120687984 0.06334007 0.030581096 -0.029296882 0.0686414 0.12359467 -0.031842448 -0.09699046 -0.11400996 0.03224483 0.09271779 0.16971481 -0.05433339 0.08183343 0.07605087 -0.046302125 -0.0031800068 -0.09526314 -0.0051640007 0.00023449851 0.038444668 -0.06614268 0.013412651 -0.06451587 0.07217446 0.037918676 -0.006223708 0.052124158 -0.06241648 0.13443401 -0.031263296 -0.026389558 0.059738338 0.19347568 0.021419482 -0.08553436 -0.05279272 0.057521388 0.11473915
years -0.006946634 -0.01153777 0.022699898 0.03556334 -0.026541905 -0.09797669 0.10459324 0.101949714 -0.13487498 -0.023110198 0.002278989 -0.11866237 0.026601952 0.03774946 -0.02989132 0.08789023 0.11853168 -0.021042472 -0.09263319 -0.11181431 0.02307166 0.085483946 0.18832059 -0.023387369 0.10343962 0.09467126 -0.02099513 0.02602963 -0.07985356 0.014125041 -0.008029218 0.049655303 -0.038629197 0.017150348 -0.054114345 0.065615684 0.076600775 -0.013386554 0.061772954 -0.05177039 0.13398041 -0.0051276884 -0.026409209 0.039990272 0.20253192 0.04792028 -0.07949018 -0.05007964 0.060933325 0.09301034
also -0.0009613852 -0.05831283 -0.010892313 0.054258917 -0.038876355 -0.12071812 0.10858233 0.13187331 -0.16698532 -0.046267398 0.0027863162 -0.12768774 0.05346141 0.062254816 -0.03394514 0.100142665 0.13646421 -0.01156867 -0.10325452 -0.09703125 0.03413305 0.09396635 0.19528845 -0.06560751 0.111246735 0.085628726 -0.065443546 0.029963596 -0.087268464 -0.01226424 0.021437855 0.030656654 -0.06619386 0.02225173 -0.08217291 0.053165812 0.07039949 -0.008125299 0.06603866 -0.08274323 0.12535888 -0.029412396 -0.031383403 0.06958006 0.20032646 0.040386904 -0.09940367 -0.050860994 0.08029711 0.11337135
go -0.034744594 -0.047252215 -0.0011013683 0.04324771 -0.03893001 -0.07778748 0.08664223 0.100372195 -0.11186153 -0.028517662 0.015366628 -0.08617155 0.06225111 0.052173655 -0.056606658 0.10802749 0.12783837 -0.010168047 -0.11528998 -0.089188375 0.031482786 0.0931206 0.19393368 -0.03807055 0.10655575 0.07648638 -0.045254074 0.024802808 -0.11476535 -0.018028662 -0.011251842 0.028408002 -0.054804366 0.03613283 -0.05517086 0.052492682 0.05964268 -0.017083285 0.03534153 -0.070988424 0.1326515 -0.021342104 -0.031543255 0.06691832 0.19552614 0.037999753 -0.067125686 -0.052480005 0.060731415 0.10896222
even -0.013732763 -0.024442831 0.008619835 0.059737615 -0.07068245 -0.09225134 0.119649984 0.09595363 -0.14136754 -0.043271624 0.016579045 -0.11057287 0.06424192 0.038918287 -0.043380033 0.09699411 0.14354756 -0.04476967 -0.13266991 -0.11127974 0.016610226 0.12080118 0.17849472 -0.052667923 0.07852681 0.0994104 -0.047572836 -0.0051972787 -0.0941302 0.015003191 -0.0029911294 0.021494515 -0.047725562 0.021987073 -0.1002032 0.078086264 0.0468562 -0.03230469 0.03753249 -0.06936113 0.12977642 0.006063206 -0.034648757 0.06925347 0.20229708 0.03673882 -0.0869278 -0.06843123 0.0635773 0.12154638
teacher -0.040843416 -0.04050746 -0.015233344 0.029861677 -0.03543911 -0.0719238 0.094915986 0.0940788 -0.107185826 -0.030475155 0.009630202 -0.11719319 0.038379487 0.026441257 -0.040528473 0.09388276 0.09363709 -0.034670852 -0.11621471 -0.09458802 0.0115441205 0.098537706 0.173822 -0.05034117 0.07081679 0.07732094 -0.024135482 0.023759453 -0.093930215 -0.012581653 -0.009123047 0.02663295 -0.04079132 0.020764397 -0.052603632 0.0443687 0.052025225 -0.030265782 0.033603486 -0.06479397 0.10389278 -0.008680826 -0.056080543 0.062653646 0.15375271 0.010379588 -0.08598075 -0.027971063 0.0593315 0.119334936
help -0.0151655665 -0.02915471 -0.0025861114 0.06018806 -0.03750332 -0.08114703 0.083162114 0.08920645 -0.10921627 -0.029748691 0.018837422 -0.09997796 0.05078518 0.039232075 -0.03443766 0.06934251 0.097535245 -0.018517807 -0.11342906 -0.0865194 0.0137755005 0.10057976 0.14733295 -0.021500671 0.07679271 0.062947966 -0.028207947 0.0065781856 -0.10157122 -0.011689555 0.0019834803 0.0094974 -0.045651194 0.023912929 -0.07447049 0.055243548 0.056477115 0.0010619045 0.040180556 -0.045845073 0.11006238 -0.015759392 -0.05341069 0.060562346 0.16680177 0.0099503845 -0.0826364 -0.049088903 0.056711137 0.10990128
would -0.013340292 -0.04897298 0.006741191 0.04318241 -0.062016286 -0.0939031 0.1115878 0.10002162 -0.16468327 -0.045157596 0.014084691 -0.10158714 0.06003808 0.022823496 -0.069606304 0.11105711 0.12483412 -0.03813877 -0.11035667 -0.11886973 0.030457139 0.11086237 0.18442954 -0.049534686 0.10965615 0.109409496 -0.037521247 0.024363212 -0.11411319 -0.005726501 -0.006921897 0.035367467 -0.05685222 0.014653274 -0.09418098 0.07973203 0.06916382 -0.026740551 0.036684997 -0.04434711 0.113860056 -0.009474673 -0.043123323 0.07033631 0.2207685 0.028753545 -0.07623871 -0.054495092 0.03992773 0.11478313
one -0.017829776 -0.016440324 0.023595685 0.05877948 -0.057526447 -0.073006906 0.07302533 0.08407438 -0.11826824 -0.014121308 0.021484328 -0.085777715 0.058274943 0.032347236 -0.051437993 0.06496835 0.116592385 -0.03622838 -0.10564239 -0.075961985 0.010513589 0.07843493 0.15545262 -0.03581015 0.08277878 0.0851123 -0.045644853 0.01570039 -0.06943754 0.001385151 0.014092663 0.016240565 -0.033373073 0.004819535 -0.059146017 0.030239288 0.043843705 -0.0366157 0.034014232 -0.05966937 0.0948976 -0.0086962 -0.029653465 0.03947965 0.15011331 0.016889496 -0.06649751 -0.049033787 0.027530685 0.094372004
course -0.006341712 -0.016198754 -0.01757018 0.043583144 -0.051382184 -0.10216981 0.08070668 0.08118855 -0.12811142 -0.040798236 0.0058904635 -0.07682912 0.020356188 0.04624452 -0.03900221 0.07590775 0.12038614 -0.0137499515 -0.102316886 -0.072241135 0.021667477 0.09956912 0.15393552 -0.045684785 0.07615299 0.057559013 -0.030937096 0.02153742 -0.071138926 0.015030206 -0.012450236 0.014510568 -0.029019019 0.019566309 -0.07590201 0.046998937 0.055118915 -0.023761623 0.023692165 -0.03640312 0.11660282 -0.026492452 -0.034041602 0.0358271 0.14719881 0.024964394 -0.0740984 -0.020128189 0.033355057 0.09959179
get -0.023803294 -0.0235017 0.0077481824 0.06382302 -0.045120906 -0.106741495 0.090415195 0.09967967 -0.13795261 -0.047129795 0.0017598877 -0.11905679 0.054806694 0.042611957 -0.026069287 0.09862851 0.10254257 -0.023082146 -0.09186209 -0.09023041 0.02460229 0.1119917 0.15933818 -0.024365269 0.099360645 0.09777116 -0.05544189 0.023633638 -0.07992144 -0.0068455036 -0.009855512 0.040594164 -0.06369006 0.009981141 -0.06616171 0.070492364 0.07302547 -0.029353024 0.021160252 -0.034015313 0.12704355 -0.020740189 -0.057493724 0.03779269 0.17657869 0.0248661 -0.072293036 -0.04583773 0.046139196 0.0952928
parents -0.0032168755 -0.039470024 -0.012211773 0.05752346 -0.038515262 -0.07521449 0.07989998 0.0771348 -0.12279214 -0.03228194 -0.005203236 -0.10336364 0.047333878 0.046197865 -0.027764013 0.08960967 0.10129903 -0.029900344 -0.11296464 -0.07754994 0.0043409546 0.10008255 0.16704594 -0.051984936 0.068070605 0.08987499 -0.052920982 0.010674958 -0.08461989 0.011462254 -0.012989392 0.035030723 -0.028041324 0.0060651316 -0.07683099 0.06158503 0.06459891 -0.016556764 0.053894524 -0.04927103 0.11302056 -0.014945274 -0.055416983 0.051072005 0.18123616 0.012301726 -0.0720762 -0.04342522 0.049110226 0.12105412
today -0.023693431 -0.036810353 0.017779088 0.01970884 -0.05321208 -0.07766883 0.055682003 0.07478141 -0.099693716 -0.029060042 -0.0032072384 -0.08255564 0.030264758 0.03340371 -0.01764644 0.07838325 0.107597195 -0.039932754 -0.06649676 -0.07724621 0.031019235 0.0839906 0.14639647 -0.051662702 0.047753036 0.080966674 -0.035863634 0.0150471395 -0.06020755 -0.0037650515 0.021932274 0.021318866 -0.058080245 0.0015365906 -0.058599107 0.023737116 0.057849433 -0.008576131 0.013090053 -0.024153197 0.106496364 0.0020953135 -0.01725768 0.017342992 0.14600717 0.0067872955 -0.06638717 -0.03504306 0.04028158 0.08646415
work -0.0125574265 -0.023778742 0.013232036 0.05261924 -0.049564213 -0.06491293 0.09089033 0.100344464 -0.10197341 -0.033035856 0.0029091584 -0.09051381 0.032320734 0.04939292 -0.035629988 0.081348926 0.10394763 -0.04161077 -0.07809423 -0.06292183 0.011477496 0.09024057 0.13692975 -0.04870626 0.089348175 0.061773118 -0.018075466 0.012806768 -0.08312576 0.0025060573 -0.0057685906 0.021191616 -0.03974707 0.027103793 -0.06439821 0.046867035 0.030744053 0.0022449605 0.016768375 -0.030904757 0.10395186 -0.025012508 -0.04408896 0.024440853 0.14634846 0.042119954 -0.043827496 -0.033831146 0.04548534 0.109964296
still -0.034083128 -0.03662035 0.009529989 0.03212583 -0.06762136 -0.11923749 0.11570634 0.110142455 -0.14603709 -0.049121145 0.017907118 -0.10364375 0.041847654 0.038371097 -0.054899056 0.099531844 0.1230549 -0.012704963 -0.13424088 -0.108622625 0.0002520955 0.10365966 0.16955283 -0.032958854 0.07686204 0.072254546 -0.029819686 -0.005557189 -0.09481819 -0.018743327 0.022335857 0.04832726 -0.04942462 0.03421422 -0.06677489 0.04517661 0.07771859 -0.041778482 0.057668913 -0.05037684 0.11296443 -0.019802365 -0.022646848 0.038060244 0.20971793 0.021310128 -0.0610925 -0.049655784 0.07073484 0.10498571
higher -0.004789008 -0.010087949 0.0055293404 0.037471026 -0.025690816 -0.05912829 0.09213087 0.09179187 -0.0914921 -0.0076167993 0.026990082 -0.082291044 0.031457353 0.030337533 -0.035667226 0.069554985 0.07364482 -0.044202812 -0.09120808 -0.05325466 0.0037591716 0.064753436 0.15145351 -0.031134186 0.072356455 0.069764026 -0.021617029 0.017389951 -0.07064229 0.0009446074 0.0216717 0.027242027 -0.050691135 0.031636257 -0.046894 0.04875322 0.03822033 -0.009904784 0.04589686 -0.029972497 0.091519274 -0.02767942 -0.028103199 0.035826046 0.15431334 0.0063592466 -0.03991812 -0.05071567 0.052699577 0.063931525
know 0.0003589458 -0.013060388 0.005280677 0.029863654 -0.03954851 -0.07971334 0.0639913 0.090003975 -0.10418361 -0.017782541 -0.004292443 -0.07000506 0.037586983 0.029173197 -0.055526614 0.080299534 0.109255485 -0.0100609185 -0.10427737 -0.09423349 0.0031115417 0.081838176 0.13009295 -0.052199557 0.06801303 0.06920807 -0.0525457 0.0012857143 -0.0766543 0.0115793375 0.0061797188 0.023056258 -0.05666849 0.0050538313 -0.06213559 0.059507087 0.058067225 -0.019632531 0.035332043 -0.064121276 0.09117846 -0.019273281 -0.019799491 0.034397997 0.14439401 0.00711355 -0.064458996 -0.053459454 0.040136985 0.08146098
support -0.022912554 -0.031393666 -0.015420453 0.03121937 -0.031783722 -0.08207867 0.05691665 0.0656057 -0.11961134 -0.025481762 0.019983875 -0.087171115 0.038080532 0.038042337 -0.016542614 0.076934285 0.10834719 -0.040513515 -0.100528955 -0.08460496 -0.0018434469 0.06052416 0.12096459 -0.038605753 0.069155894 0.05511167 -0.04849202 0.020147372 -0.0715287 0.0063704615 0.015941624 0.038354203 -0.03948782 0.02239539 -0.06687187 0.043335944 0.05265177 0.0051988233 0.02291502 -0.036053646 0.07573537 -0.0147918 -0.014593953 0.028378464 0.13965523 0.004207624 -0.0759103 -0.01629054 0.02884836 0.09279243
cases -0.030820396 -0.030371908 -0.01385475 0.049271572 -0.021293081 -0.060126975 0.08773901 0.06933748 -0.11822232 -0.002478081 0.00033231554 -0.062350046 0.042896926 0.024062436 -0.047777347 0.06096352 0.09839691 -0.03551712 -0.07906913 -0.086885504 0.03072605 0.06884618 0.15275222 -0.04350093 0.04425979 0.04202299 -0.036523893 0.016319029 -0.07052314 0.016878104 0.008875752 0.0315661 -0.030738868 0.03446154 -0.059377894 0.055712827 0.021347128 -0.009855812 0.02856258 -0.038863998 0.09861138 -0.014307854 -0.03422332 0.033578213 0.13679427 0.016868845 -0.042907946 -0.047560018 0.056558248 0.08111227
first -0.013623074 -0.020342194 0.0017714943 0.038924918 -0.044513315 -0.0704486 0.07759531 0.07156324 -0.12792674 -0.04599644 0.0110572865 -0.099255785 0.032304123 0.019734273 -0.05352113 0.07348335 0.1077567 -0.026790917 -0.10505132 -0.071239434 0.014301123 0.07148171 0.14644659 -0.035996534 0.065741405 0.046907328 -0.015625803 0.017623866 -0.08275228 0.011887171 0.0033784704 0.04018143 -0.043764308 0.031899195 -0.060186073 0.03232874 0.036595214 0.0027670565 0.034403004 -0.041856144 0.11168174 -0.022579307 -0.03654425 0.022040356 0.13991824 0.009374879 -0.054083813 -0.032112986 0.05461469 0.09495063
free -0.012537984 -0.015321134 -0.0023919945 0.03986857 -0.017940916 -0.071964845 0.08489539 0.058171947 -0.08713152 -0.014933982 0.020706488 -0.10087457 0.032332767 0.032419972 -0.04607249 0.052055344 0.10162574 -0.03679205 -0.09405285 -0.05392247 -0.0026963032 0.09469195 0.13704751 -0.023916826 0.05893721 0.04944502 -0.04776578 0.005500197 -0.0819422 -0.0079184035 0.02029002 0.006744997 -0.05188464 0.0056461073 -0.06910418 0.022291012 0.03991505 0.0024204943 0.048539 -0.052709583 0.069827236 -0.014120724 -0.048188485 0.025115803 0.12848437 0.030074155 -0.07226451 -0.03163331 0.04408335 0.09214352
chooek -0.013058169 -0.032085422 0.0131864585 0.0061553284 -0.008915201 -0.035075303 0.05498793 0.04208373 -0.05736397 0.00072228804 -0.008165169 -0.059542164 0.025198026 0.0080897 -0.026784776 0.030806843 0.026902778 -0.010268577 -0.04648827 -0.045162454 0.0138720535 0.050587114 0.085506916 -0.032893706 0.024760477 0.015655708 -0.033246476 -0.0011376673 -0.040580533 -0.018973807 -0.009039149 0.00716941 -0.005471764 0.010246965 -0.0128655685 0.004570794 0.014236118 -0.00943673 0.03347978 -0.01847489 0.04966603 -0.00213724 -0.011611245 0.0009189711 0.082360804 0.024287347 -0.01957782 -0.008871458 0.0051505864 0.035389796
public -0.0013661089 -0.028386272 -0.017098036 0.045815036 -0.050517082 -0.06818853 0.09095289 0.06924188 -0.10606709 -0.0155316135 0.0037888563 -0.09281016 0.053811744 0.048305914 -0.056813177 0.08750856 0.11760309 -0.028462986 -0.086976714 -0.08452837 0.031807933 0.08308351 0.16100694 -0.015742373 0.0812783 0.053031147 -0.036370125 0.01273241 -0.0757258 0.0031804417 0.020965463 0.03381724 -0.02064785 -0.000277163 -0.0728238 0.048302576 0.05534384 -0.01887082 0.019813549 -0.053134613 0.07804723 0.008564193 -0.026197439 0.023007002 0.1629164 0.035474595 -0.07409237 -0.050674696 0.04702668 0.10879369
take -0.039839536 -0.029066408 -0.011924766 0.03598946 -0.035329852 -0.0935865 0.07575956 0.085585214 -0.1273476 -0.012002286 0.02054205 -0.109367765 0.032494422 0.03630372 -0.055216894 0.06095462 0.08407612 -0.03735538 -0.07740794 -0.06711799 0.021750143 0.07009666 0.16710673 -0.026901564 0.076292954 0.052118417 -0.03788039 0.009948603 -0.09724191 0.0020109718 0.004328675 0.012628663 -0.061827034 0.030076278 -0.08088441 0.037128225 0.05916002 -0.020661684 0.029119661 -0.057829026 0.09831536 -0.00036728356 -0.04611695 0.030924002 0.15178378 0.019055285 -0.08210531 -0.059636597 0.060553618 0.10967686
study -0.029752482 -0.04929287 -0.0019136507 0.03288086 -0.023027508 -0.08105826 0.07210895 0.07988077 -0.13945906 -0.024524175 0.0032137476 -0.10088351 0.04887889 0.047144014 -0.030438017 0.06482253 0.118354164 -0.0461611 -0.11339183 -0.101159014 0.011816012 0.093065314 0.1542165 -0.035065915 0.09572481 0.085589424 -0.03678604 0.029072573 -0.082049586 -0.007477643 -0.010527117 0.039940763 -0.06354056 0.01621377 -0.050058253 0.045282125 0.054267578 -0.03507708 0.045901984 -0.033769794 0.0848571 -0.017719777 -0.01942699 0.049070228 0.16922966 0.030758984 -0.086501986 -0.021504017 0.043718044 0.08679975
onlinelearning -0.010649704 -0.020367833 -0.011250342 0.04213707 -0.035321314 -0.07801418 0.077102624 0.07718069 -0.06969043 -0.019786209 0.008537943 -0.08713593 0.0387469 0.042960845 -0.031357046 0.055122864 0.070137225 -0.020316102 -0.089467764 -0.051384263 0.01450026 0.08859641 0.1069263 -0.039777018 0.045100946 0.037767272 -0.021805456 0.020434797 -0.061252184 0.0029036254 -0.017806802 0.017231973 -0.048705462 0.02059137 -0.05481224 0.053955123 0.030247347 -0.00072950264 0.03519948 -0.03481434 0.0767964 0.008750879 -0.020881131 0.049422488 0.13206294 0.033653744 -0.038881533 -0.045551397 0.022851953 0.07468595
thank -0.014341801 -0.017038591 0.00463604 0.04638371 -0.043035697 -0.06744794 0.07935577 0.07147037 -0.08511713 -0.0136853345 0.006502664 -0.09308646 0.038003486 0.0056529874 -0.03408608 0.04291296 0.080994405 -0.0382174 -0.06065658 -0.077632636 0.034508932 0.051506363 0.11656637 -0.0276001 0.053855225 0.059117157 -0.037842568 0.007553752 -0.07998027 -0.024094313 0.013300717 0.023019914 -0.020137824 -0.0023118514 -0.0433319 0.016155493 0.05502769 -0.00213864 0.017370677 -0.023129763 0.069766976 -0.028193565 -0.025317978 0.03978975 0.11362443 0.0020088977 -0.033764467 -0.026910165 0.03939881 0.08105279
could -0.02809852 -0.024645891 0.0067906715 0.05809663 -0.051935196 -0.08030835 0.09495838 0.070603795 -0.1349483 -0.010480364 0.025509594 -0.10261799 0.04931827 0.032071646 -0.049175788 0.072676845 0.09230813 -0.010634244 -0.0928926 -0.09971248 0.015544963 0.083604716 0.17112882 -0.039390225 0.091675915 0.07528708 -0.042283393 0.02645439 -0.07639343 -0.011741882 -0.009196568 0.020461561 -0.0542973 0.02475496 -0.08288222 0.035893872 0.05677807 -0.016801003 0.046817448 -0.05327831 0.09983506 -0.0057042534 -0.024556749 0.045553662 0.18342443 0.035503678 -0.080363736 -0.043501582 0.029860614 0.08472161
two -0.019126955 -0.041320533 0.021975074 0.03360353 -0.03231909 -0.0760005 0.045256495 0.042549103 -0.070509166 -0.026467333 0.019198729 -0.07909377 0.04854656 0.031417783 -0.027785484 0.048193775 0.080065615 -0.024974028 -0.058816154 -0.054077648 0.014815413 0.07362138 0.12611872 -0.043505806 0.07500267 0.05709513 -0.036679145 0.024784591 -0.065867625 0.014869677 -0.0006619044 0.033479564 -0.026271528 0.0040727034 -0.055876505 0.05444004 0.040609006 -0.026038483 0.02687461 -0.040111978 0.07894485 -0.02447095 -0.011000648 0.034696974 0.14064234 0.031529743 -0.05844561 -0.023647325 0.03386339 0.051380575
social 0.0020592997 -0.001159971 0.021457216 0.02192919 -0.050997615 -0.055770278 0.044947058 0.08280603 -0.0817969 -0.008815397 0.023216093 -0.07024059 0.02408146 0.025047312 -0.00806156 0.04212564 0.07281309 -0.024279755 -0.06370461 -0.05042988 0.0042667086 0.07425222 0.10936102 -0.0211283 0.07651384 0.062689826 -0.03676617 0.0018775592 -0.04591539 0.016427616 0.0133889625 0.012938094 -0.036969095 0.0010428164 -0.057427917 0.042539652 0.024605189 -0.027336983 0.04405596 -0.015962502 0.094905384 -0.004345172 -0.045971256 0.0166759 0.12717232 0.0018366589 -0.06523073 -0.025723316 0.028497996 0.052733183
future 0.0028399276 -0.0349318 -0.013996347 0.017012944 -0.018839842 -0.04754233 0.03316832 0.059465874 -0.043850176 -0.029330302 0.026031954 -0.0330304 0.0036416058 0.013127023 -0.01231552 0.055300344 0.046848625 -0.02771116 -0.04230374 -0.06135395 -0.0042035393 0.04341696 0.09493749 -0.03171023 0.050616622 0.036201097 -0.011944484 0.018035179 -0.040825713 0.01433545 0.00062026887 -0.0049939165 -0.004332994 -0.00020678977 -0.025386063 0.016920224 0.0115115065 -0.02233364 0.0299148 -0.028166877 0.057873562 -0.024597125 -0.029168112 0.009218735 0.104803346 -0.0023944664 -0.02435456 -0.023232648 0.024229491 0.06851912
think -0.027001746 -0.042330127 0.004372458 0.05412804 -0.020559736 -0.090940535 0.085937016 0.09213647 -0.123999506 -0.013397272 -0.0019743287 -0.0873431 0.046616957 0.03937948 -0.047400672 0.08006642 0.11435234 -0.007631295 -0.11407725 -0.06973683 0.02527654 0.08423846 0.1713793 -0.0452767 0.07048159 0.055085916 -0.04113566 0.010425247 -0.08740475 -0.014508725 0.015922554 0.014799205 -0.055904638 0.034021392 -0.04354469 0.05509696 0.048298202 -0.016061934 0.03279481 -0.032598186 0.08514158 -0.0095897475 -0.025505586 0.036849897 0.16123852 0.035058495 -0.04423081 -0.03463028 0.06466265 0.08078969
college -0.0040574716 -0.028209833 -0.0071295216 0.03080535 -0.037862793 -0.07269828 0.06622803 0.07645729 -0.09654192 -0.038077857 0.0012722017 -0.05137666 0.007166419 0.040917818 -0.02884085 0.05981146 0.06954105 -0.030558031 -0.06390431 -0.046513736 -0.0029022521 0.06107493 0.116230614 -0.018459551 0.06916993 0.043765076 -0.009632653 -0.004339504 -0.06431455 0.016585665 0.013072273 0.0021560714 -0.035118155 -0.0050219735 -0.04883486 0.04568516 0.021140276 -0.0018748905 0.036797218 -0.04091577 0.05264205 -0.012727409 -0.029093374 0.037234426 0.1354254 0.023994146 -0.051663376 -0.021866545 0.019855322 0.065961495
crisis -0.017045604 -0.0025953404 -0.012019838 0.0139639815 -0.023105223 -0.053726636 0.044457134 0.047644544 -0.085875005 -0.02601179 -0.009832156 -0.07303392 0.020979725 0.03393771 -0.02633633 0.056831285 0.073295034 -0.02458224 -0.0611459 -0.055756602 0.022364283 0.06244066 0.090828195 -0.022344155 0.075761974 0.03848895 -0.036254454 0.0024950206 -0.039126735 -0.003485991 0.023966888 0.00036632005 -0.011698715 -0.008425434 -0.026095718 0.03805918 0.041441116 -0.027709825 0.043870423 -0.021723673 0.059086177 -0.028180912 -0.009442229 0.018219339 0.09728804 0.025379963 -0.0557761 -0.043527648 0.05147444 0.061343525
good -0.020470215 -0.032932386 -0.005968437 0.02353087 -0.046834014 -0.08405199 0.05476842 0.090817906 -0.08624113 -0.030454952 0.015837897 -0.095146626 0.048004676 0.04388483 -0.032159243 0.050745036 0.081224695 -0.011571028 -0.08909906 -0.06419405 0.032867327 0.0837444 0.12311078 -0.02113408 0.059673015 0.047626097 -0.0144393 -0.009884385 -0.07262968 -0.0061108903 -0.0146389 0.019679513 -0.026043737 0.0051242798 -0.06932657 0.05373476 0.03670705 -0.031177308 0.030510277 -0.040348243 0.101928264 -0.008511292 -0.013854362 0.015700504 0.14867608 0.036179617 -0.053349987 -0.040335108 0.04262152 0.07958151
made -0.029882113 -0.03333886 0.0050270804 0.02278535 -0.008937485 -0.06060415 0.068780124 0.06206057 -0.06401485 -0.038382217 0.0131811965 -0.06730386 0.03124641 0.01964041 -0.03996811 0.07045649 0.064472415 -0.014155279 -0.080080695 -0.04941698 0.03150379 0.059841778 0.12138287 -0.026019717 0.06890408 0.068931445 -0.024233924 0.002852116 -0.07510084 0.017130656 -0.003328606 0.022881875 -0.034013394 0.029921897 -0.028378688 0.037153162 0.03884804 0.00027524072 0.029426679 -0.01916414 0.069194734 -0.011527402 -0.012919181 0.021577772 0.106216975 0.037826482 -0.06399605 -0.034635823 0.02545726 0.07717974
classes -0.0008091906 -0.036579892 0.014650045 0.03193871 -0.052492395 -0.07666705 0.06494126 0.06216177 -0.09796714 -0.034561127 0.021645129 -0.059576735 0.027740419 0.032181863 -0.033079773 0.06201111 0.07074022 -0.017435536 -0.07262955 -0.055279467 0.02762551 0.08168959 0.14061932 -0.047262892 0.060279287 0.04750758 -0.014489644 0.026410531 -0.07733888 -0.00079546595 0.011201929 0.025682298 -0.033407513 0.0015402872 -0.03328405 0.026278712 0.029331556 -0.027443768 0.01616504 -0.04591139 0.06534116 -0.0068953373 -0.037348498 0.02999386 0.1478914 0.03260624 -0.04978196 -0.036325574 0.058583517 0.07898109
much -0.0050823386 -0.0024113217 -0.017029068 0.009668718 -0.010185961 -0.05601365 0.055085033 0.07098918 -0.09282163 -0.032091852 -0.008674698 -0.05239525 0.022603547 0.0067524207 -0.040265888 0.067911565 0.06782781 -0.03180362 -0.07380923 -0.063127875 0.004933414 0.0603339 0.12151879 -0.02451723 0.048022367 0.05664055 -0.014284063 -0.011549993 -0.07459409 0.009957606 -0.016236361 0.019848937 -0.04999257 0.030373814 -0.055774063 0.021640742 0.032134913 -0.015483832 0.041017175 -0.015506349 0.07285405 -0.0015380986 -0.016412903 0.031011013 0.105842315 0.018903786 -0.043490507 -0.012756893 0.024878044 0.048838086
make -0.008676431 -0.008066325 -0.010592014 0.03462969 -0.050295025 -0.069161825 0.09777094 0.07971245 -0.10057987 -0.012787985 0.020536926 -0.1060401 0.041465864 0.024967741 -0.042763524 0.08331347 0.09563906 -0.0035871519 -0.093266904 -0.07914231 0.011459944 0.06858315 0.13045312 -0.024151832 0.059947632 0.07370155 -0.026101997 -0.0035669182 -0.085217424 -0.01541385 -0.015092565 0.026316926 -0.021635322 0.0029934412 -0.06941716 0.062493224 0.06704061 0.0022721791 0.013068842 -0.033628125 0.08274221 0.0035139138 -0.020151358 0.034128223 0.17178667 0.011874093 -0.05384204 -0.029099695 0.056204133 0.10411113
information -0.019573122 -0.010885662 -0.011727978 0.014151333 -0.024269113 -0.080658786 0.057453334 0.06365041 -0.06529711 -0.033575047 0.0059981984 -0.0743196 0.015286724 0.019651528 -0.018010184 0.042809322 0.0675763 -0.0011792359 -0.07147116 -0.065947 0.026193572 0.06548323 0.11083786 -0.006351623 0.07239396 0.057736654 -0.016003415 0.0024331834 -0.041530218 0.008432432 -0.009039032 0.0054154536 -0.03328281 -0.0035035452 -0.038777936 0.015626611 0.03022361 -0.0068146535 0.031610966 -0.025262967 0.05475453 0.00091886334 -0.014609333 0.037053447 0.13253295 0.02392801 -0.03423362 -0.009905629 0.030236999 0.06533159
learn -0.009514831 -0.034063164 0.012527572 0.015716787 -0.033228155 -0.060569935 0.071818866 0.06111026 -0.07935583 -0.024399184 0.0044124853 -0.06424834 0.01486052 0.012611639 -0.025671441 0.059692025 0.071744055 -0.0018486595 -0.06353338 -0.061803117 -0.0052265716 0.07156275 0.118937396 -0.037679058 0.05992321 0.066331685 -0.03557628 0.0011394114 -0.07444242 0.004031198 -0.005557821 0.02170811 -0.011059848 -0.004683137 -0.06200924 0.03468973 0.017043969 -0.030909048 0.004282237 -0.032726336 0.06490064 -0.006494792 -0.026460167 0.046288777 0.12765487 0.005916027 -0.026093744 -0.04577611 0.028261617 0.06796201
want -0.01738825 -0.03084211 0.003248229 0.033928916 -0.052427385 -0.0777969 0.05105461 0.07419279 -0.095081836 -0.037029978 0.020851806 -0.07296559 0.03560013 0.035414048 -0.039098915 0.07768742 0.06613637 -0.027802013 -0.09324519 -0.06528635 -0.0020223653 0.08946341 0.13801275 -0.045028485 0.0730195 0.072442695 -0.042298727 0.017550444 -0.08355487 0.016125679 0.011712314 0.020616548 -0.05378767 0.014400623 -0.052450527 0.03996461 0.056692164 -0.020012895 0.00975797 -0.056280933 0.07937412 -0.0059137344 -0.028470118 0.030012047 0.14983976 0.021709397 -0.04009075 -0.024984187 0.023131695 0.07208895
may -0.029997151 -0.035575025 -0.0047190743 0.042497378 -0.032059904 -0.044278752 0.05617909 0.05151019 -0.07757939 -0.015957905 0.009241798 -0.073088355 0.015971493 0.030366864 -0.043682765 0.037505634 0.056585915 -0.0022469303 -0.06269624 -0.04635935 0.030759718 0.05072706 0.12348313 -0.02143815 0.06899961 0.04545432 -0.0060468903 -0.0046609906 -0.04656564 0.011942067 0.0006071202 0.029331423 -0.01926083 0.017941529 -0.032888744 0.040523846 0.03310576 0.0010061814 0.035343245 -0.04210521 0.07714692 -0.007988224 -0.015111964 0.01934741 0.11231953 0.019652834 -0.04072759 -0.043199535 0.048767857 0.06341675
really -0.0055455575 -0.018021002 0.017330928 0.022742774 -0.039262634 -0.062498014 0.060974173 0.07991977 -0.10663417 -0.016290613 0.007929661 -0.076853886 0.03510149 0.020239906 -0.041278798 0.04430576 0.08794319 -0.01043417 -0.091282226 -0.049763106 0.021340149 0.06250871 0.12595338 -0.02253454 0.04730997 0.062355552 -0.01565499 0.021840421 -0.056102194 0.005643179 -0.0022125728 0.008722468 -0.01934326 0.00060991116 -0.0551307 0.032055713 0.052666355 -0.027731946 0.035540234 -0.033651028 0.07364597 -0.024476074 -0.044646587 0.04133793 0.11358699 0.03441437 -0.05894904 -0.05184241 0.028253078 0.09238163
plan -0.018403566 -0.01017967 -0.018199753 0.011689257 -0.044876948 -0.06414363 0.04942865 0.04594931 -0.109138496 -0.022354277 0.025163587 -0.09041522 0.019299062 0.027560897 -0.022431104 0.043288335 0.09505853 -0.036981203 -0.065980464 -0.0455325 0.023460187 0.0833863 0.13983782 -0.022064315 0.045523312 0.068006754 -0.043434933 -0.005138833 -0.05205314 -0.018719673 -0.01083466 0.0129399905 -0.027797723 0.026288087 -0.04583612 0.04934615 0.03286778 -0.00517568 0.013740698 -0.040363085 0.06238728 -0.008302924 -0.017532034 0.0429131 0.11835715 0.025457837 -0.03443808 -0.042891867 0.027963135 0.07255505
week -0.025551967 -0.004617195 0.017824532 0.049871653 -0.012866635 -0.08309836 0.06377247 0.050680842 -0.100540295 -0.039730705 0.016630191 -0.07220685 0.015153049 0.03921313 -0.028364122 0.0598898 0.07218353 -0.026587056 -0.08086322 -0.049277138 0.017421057 0.059320167 0.1333444 -0.026766764 0.054472446 0.071985126 -0.03476825 0.02273937 -0.0736483 -0.017352797 -0.0077385847 0.013197861 -0.035978045 0.010791265 -0.039970703 0.04848209 0.034411788 -0.00705751 0.023524772 -0.035669703 0.0763451 -0.01331491 -0.036709577 0.02372712 0.12879822 0.025700314 -0.070778586 -0.019819213 0.032806776 0.06840391
vaccine -0.027053686 -0.03346898 -0.008589144 0.012998558 -0.03666215 -0.0866979 0.06054824 0.05563927 -0.077257045 -0.026133379 -0.005419985 -0.067460515 0.01505435 0.020833423 -0.026175033 0.048520733 0.0678247 -0.036202837 -0.066050224 -0.050257646 0.020734917 0.07932244 0.13905577 -0.03876567 0.08426527 0.07480825 -0.020122727 0.026971972 -0.08735875 -0.001276218 0.019359037 0.01998967 -0.048892856 0.010463317 -0.06036097 0.03464393 0.038134295 0.0005149246 0.029401781 -0.031441025 0.0757962 0.008093001 -0.042726647 0.014845154 0.12909655 0.007950248 -0.06367266 -0.033217546 0.04289937 0.083341666
digital 0.0007658748 -0.020566616 0.0054011256 0.021571346 -0.007350782 -0.029961025 0.04337733 0.04892208 -0.076769985 -0.025991831 -0.008004166 -0.05177914 0.009968369 0.0074850707 -0.01822112 0.047794167 0.036910404 -0.009999213 -0.04200131 -0.03799273 0.0009629182 0.06825549 0.10583344 -0.020879466 0.04436725 0.019393118 -0.028586816 0.004720414 -0.038484953 -0.00050419744 -0.017614977 0.026227424 -0.041128557 0.028990991 -0.023951605 0.012574698 0.03128098 0.0061225407 0.00823047 -0.04187504 0.07494242 -0.0020462158 0.0022317604 0.0016790187 0.088342786 0.030242221 -0.04085459 -0.025725052 0.010783867 0.040819604
report -0.030308856 -0.0056003686 -0.0014562175 0.016079875 -0.01758059 -0.07798959 0.06639267 0.07010056 -0.0934671 -0.03197466 0.009254668 -0.08401729 0.048206657 0.040704314 -0.03071133 0.05057761 0.09290554 -0.017466867 -0.09374222 -0.081097685 0.0069016274 0.07960707 0.11654173 -0.041873623 0.08019258 0.052426986 -0.012748982 0.010833275 -0.080160715 -0.0138970055 0.0021808085 0.03062552 -0.049154166 0.004249495 -0.06818944 0.053379316 0.037432004 -0.0075743534 0.025629958 -0.05503571 0.0821958 -0.008844669 -0.023169413 0.017905487 0.12443394 0.010249881 -0.04849384 -0.04134131 0.042243376 0.08794337
working -0.007388981 -0.015808398 -0.002937016 0.030721936 -0.041542187 -0.077954285 0.080962904 0.05593454 -0.10822977 -0.012421245 0.026159585 -0.07228212 0.033301663 0.016114892 -0.038351182 0.040633917 0.06283621 -0.037163284 -0.086852 -0.045846395 0.03166047 0.06475887 0.12053496 -0.012004451 0.06128313 0.043892432 -0.020468138 0.012629993 -0.07100809 -0.013256717 0.021755042 0.036211073 -0.05069884 0.00129165 -0.04594772 0.038331144 0.02215676 0.0046427804 0.015254553 -0.026040336 0.09639313 -0.006404967 -0.018573545 0.027152885 0.10606798 0.023078272 -0.051528107 -0.051087823 0.049696475 0.05848077
universities -0.00096495065 -0.026176078 -0.017806157 0.0049181757 -0.010998306 -0.060656797 0.059378866 0.045773912 -0.0496516 -0.001648058 0.027116014 -0.037901863 0.006085698 -0.00084210926 -0.033902366 0.042632677 0.07024593 -0.0068018013 -0.06071815 -0.037931185 0.0017232372 0.039107446 0.10165824 -0.04145793 0.046022937 0.03087041 -0.004239324 -0.0017245056 -0.04331045 -0.014745953 0.02144787 0.0038244114 -0.01950565 0.018100644 -0.019689651 0.01597175 0.020039393 -0.024499685 0.033485964 -0.03802685 0.06834405 -0.008518599 -0.005831435 0.012185997 0.09585242 0.016964205 -0.055512555 -0.0059743477 0.023306718 0.06883968
class -0.014177552 -0.010002518 0.0074116816 0.044619497 -0.044822764 -0.04132997 0.073747054 0.05992478 -0.07090198 -0.010538241 0.01600501 -0.070553906 0.031389043 0.021868786 -0.016548714 0.06867682 0.054216906 -0.01677242 -0.083819196 -0.059475273 -0.007578333 0.067071825 0.105122596 -0.027638346 0.065435134 0.03216843 -0.020338815 0.0029967711 -0.064677596 -0.01780081 -0.015089191 0.035339855 -0.04502778 0.022035524 -0.05212653 0.029554911 0.03938466 -0.029046718 0.011686054 -0.047643222 0.050338186 -0.016983438 -0.031008258 0.029611286 0.11120809 0.0031355242 -0.05198028 -0.03261614 0.018682443 0.053286888
state -0.020085005 -0.034861125 -0.016363263 0.011036177 -0.01877027 -0.07318148 0.049267747 0.07092337 -0.06418942 -0.032347396 0.021628993 -0.07843438 0.024958238 0.034769937 -0.03130928 0.07082775 0.068408616 -0.006043051 -0.05184577 -0.07390077 -0.0017976356 0.045193844 0.1047201 -0.040063087 0.05158709 0.032394994 -0.022271458 0.007083647 -0.044893783 -0.021249605 -0.0046840943 0.029226089 -0.011010945 0.008983396 -0.042217694 0.019926349 0.035000134 -0.029394303 0.008274214 -0.03106088 0.0682516 0.0029751856 -0.044029675 0.032069687 0.114570916 0.00795426 -0.044142038 -0.015279723 0.018388527 0.06492112
via -0.0024577961 -0.011556881 0.007926813 0.03725755 -0.00817448 -0.03783981 0.059815377 0.029643636 -0.04721665 -0.007077968 -0.0056113717 -0.058635764 0.03242907 0.02816935 -0.04114438 0.043167263 0.053854764 -0.01070615 -0.03781449 -0.05911552 0.02833789 0.028538534 0.09677053 -0.0008571031 0.033039495 0.018756783 -0.005499664 -0.011944739 -0.061310403 -0.0032837626 -0.01171959 0.031103974 -0.007177516 0.010770175 -0.018258324 0.04547429 0.03627974 -0.0013952076 0.029334242 -0.012113545 0.06372897 0.006875403 -0.034522142 0.04024679 0.10433681 0.034765538 -0.052193787 -0.028312737 0.024483843 0.059179753
news -0.029023353 -0.015718825 0.014068173 0.042433973 -0.027539892 -0.044462383 0.060178667 0.04435052 -0.063574 -0.034821887 0.0074251904 -0.043420225 0.029248001 -0.001294873 -0.033030815 0.049411926 0.06171405 -0.022293342 -0.042449974 -0.040061846 -0.008337807 0.07029698 0.07423969 -0.027046086 0.062539764 0.042492915 -0.030911569 0.009383431 -0.056020346 -0.01670563 -0.014539785 0.023784935 -0.042700578 0.017537398 -0.047772076 0.037854105 0.018745387 -0.023162782 0.032621823 -0.045081213 0.060350765 -0.011067396 -0.033878278 0.008770944 0.10752501 0.007220026 -0.027293274 -0.043235704 0.031438008 0.049467407
mexico -0.022204982 -0.021076528 -0.018890807 0.012463736 -0.023637518 -0.044398747 0.02885081 0.021600623 -0.044747926 -0.015011624 0.017873667 -0.0373675 0.03664664 0.0061558024 -0.0381316 0.039259523 0.030735213 0.00033909307 -0.028394654 -0.037940346 0.023498233 0.062494274 0.081625395 -0.005078411 0.0564583 0.034740377 -0.03355103 -0.010941919 -0.0416567 -0.0014546334 0.02198884 -0.007387484 -0.025658647 0.026397025 -0.032698937 0.0045715454 0.027474778 -0.023787072 0.007596697 -0.0357887 0.04698802 0.009085596 -0.0059757656 0.037952162 0.09689491 0.023030724 -0.04216592 -0.004770539 0.000222429 0.032976344
continue 0.007012888 0.00167015 -0.01038844 0.0029673793 -0.0039804894 -0.050552916 0.032317527 0.05751037 -0.046632178 -0.0063128546 0.0026586717 -0.028543815 0.03573904 0.029899463 -0.00041318368 0.02680838 0.053025566 -0.015982214 -0.035359323 -0.021858606 0.019019954 0.052427974 0.09224875 -0.007321491 0.03840933 0.017998645 -0.020889923 0.022768775 -0.05308644 0.0008289823 0.0104041565 -0.0012513467 -0.0056062522 0.011803107 -0.027291039 0.041035693 0.027321365 -0.0061431355 -0.002451551 -0.0038785576 0.030226253 0.012386197 -0.0065819668 0.021079669 0.06601363 0.0334856 -0.036159396 -0.009047054 0.01595207 0.038235646
sure -0.013123096 -0.03478285 -0.010871262 0.006466198 -0.016063066 -0.056043662 0.05280148 0.066601895 -0.08169056 -0.034283984 0.01391126 -0.07450601 0.025673231 0.038743705 -0.02876111 0.062584735 0.07791648 -0.02215361 -0.07482498 -0.03801814 0.014560731 0.058661606 0.10723902 -0.034886923 0.0580529 0.04116433 -0.014027427 -0.0015574679 -0.057156276 0.00529378 -0.013215751 0.012358537 -0.04561669 0.0138036385 -0.038162887 0.03582928 0.034854818 -0.0119191585 0.027501294 -0.033421654 0.07884727 -0.013600773 -0.03457883 0.017373392 0.09074128 0.0022713293 -0.03920054 -0.018032001 0.019083295 0.0443471
part -0.024646413 -0.008193692 -0.016789384 0.034112267 -0.0127616925 -0.04049464 0.035079394 0.059450928 -0.08361978 0.0014396702 -0.0010203657 -0.06250364 0.034354392 0.01777308 -0.013067767 0.038895395 0.07275285 -0.035056755 -0.048078172 -0.053821944 -0.00089771446 0.054842755 0.09589509 -0.024972478 0.04380456 0.025045652 -0.036636695 -0.00668752 -0.06875902 -0.011311243 0.020189075 0.012192958 -0.04278933 -0.00027733092 -0.032482125 0.024974933 0.027796479 -0.019742178 0.03395257 -0.044370927 0.04761336 0.008782238 -0.036399435 0.03027008 0.10251449 0.037626885 -0.032361805 -0.021246597 0.033551015 0.06372306
program -0.00805448 -0.022983901 0.009595869 0.03663818 -0.007055413 -0.05403218 0.048282444 0.065674804 -0.08866392 -0.018610124 -0.0053714328 -0.04765262 0.0049313074 0.025653636 -0.0054994007 0.04281211 0.04509904 -0.03181587 -0.053104766 -0.06147267 0.022386765 0.053280156 0.11379327 -0.023967728 0.034370683 0.03236642 -0.019457616 -0.0023892715 -0.03811365 -0.009972905 -0.01086016 0.01827223 -0.03684512 -0.00505811 -0.050561767 0.025476605 0.03120361 -0.0047086137 0.034586716 -0.015756607 0.07397618 -0.00554364 -0.033811737 0.043321256 0.100672126 0.027759952 -0.043291368 -0.0135936905 0.03892215 0.043722197
last -0.019289706 -0.018476687 0.0066335597 0.00613595 -0.015303852 -0.047528718 0.05300814 0.04608727 -0.090016626 -0.0011566246 -0.009342875 -0.075043224 0.03228754 0.0024247773 -0.03136723 0.043626297 0.061969407 -0.029897362 -0.053354196 -0.051329948 0.01843461 0.054567404 0.11592152 -0.043681264 0.061550062 0.034567006 -0.01796407 -0.008052979 -0.0583667 -0.015489902 -0.0050550275 0.03775622 -0.021867685 0.014265743 -0.052677345 0.04127634 0.015275055 -0.01590839 0.009613237 -0.042731885 0.06881756 -0.014755123 -0.0180338 0.03376271 0.09168287 0.014776774 -0.04768644 -0.04524591 0.010415795 0.06405231
government -0.0035305289 -0.018038668 -0.0076163337 0.031614393 -0.022472236 -0.07308584 0.06704388 0.0696517 -0.08983129 -0.018820673 0.020387974 -0.06471127 0.024019009 0.01058816 -0.0125774825 0.06268483 0.06974068 -0.025486598 -0.06509534 -0.060600504 -0.010182939 0.07234629 0.09909634 -0.02506098 0.06283713 0.027353311 -0.008904363 -0.008637242 -0.063721545 0.008553758 -0.005724937 0.009809517 -0.040830914 0.0042552524 -0.046350975 0.022302065 0.049838286 0.007725226 0.021900559 -0.03089231 0.052529775 0.009166556 -0.032186206 0.038636155 0.12302587 0.03017498 -0.043507688 -0.014718478 0.043308448 0.052556116
high -0.009092758 -0.0017194016 0.0132307485 0.020835847 -0.017907958 -0.059559118 0.024436759 0.035117704 -0.074234135 -0.013825663 -0.0016659042 -0.05082704 0.036816634 0.036514826 -0.0046105324 0.047021065 0.049875543 -0.008737658 -0.058289878 -0.063329294 0.022660818 0.030858833 0.09213247 -0.028773597 0.029893728 0.036894046 -0.031353 0.023567526 -0.058869023 -0.019645818 0.013003064 0.023148187 -0.013633239 0.014200209 -0.042823836 0.014928111 0.029516174 0.0071921693 0.007946668 -0.031082105 0.058214433 0.007849515 -0.03260028 0.013187038 0.082124315 0.017686693 -0.024963366 -0.010204129 0.0057548163 0.066328324
challenges -0.015654631 -0.022354482 -0.016480247 0.0081010135 -0.0020276697 -0.039552283 0.028020563 0.052711263 -0.07878538 -0.03235379 0.013035091 -0.045366254 0.023138266 0.035219505 -0.0067666047 0.030082868 0.060838 -0.008491939 -0.047565002 -0.026908536 -0.0060987184 0.042210054 0.0872295 -0.007940253 0.04030487 0.054739393 -0.028289752 -0.014167282 -0.058066484 -0.008953126 0.021676736 0.0028846408 -0.03417205 0.026556253 -0.05071431 0.030410372 0.039594784 -0.025255974 0.021330716 -0.031676084 0.06714957 -0.017346784 -0.032118894 0.042453635 0.078188434 0.030606614 -0.05358753 -0.0076673594 0.0180604 0.034754273
india -0.014059528 -0.021768885 -0.0021009434 0.020216634 -0.037264932 -0.057926215 0.041838076 0.06577234 -0.05710695 -0.017651834 -0.00276284 -0.04437917 0.003505591 0.022533674 -0.014256493 0.040676635 0.05003832 -0.031350736 -0.07392299 -0.03470052 0.016886907 0.05125572 0.11281671 -0.040026005 0.045987464 0.04213321 -0.03626927 -0.012893588 -0.033494018 -0.010251951 -0.014911474 0.032015 -0.03891218 0.0059555336 -0.03507292 0.02190903 0.013355944 -0.018269993 0.0017390549 -0.025558583 0.050755985 -0.0064151403 -0.014499602 0.0190929 0.1151439 0.031461004 -0.040058974 -0.025045428 0.029630987 0.070822954
got 0.0058500445 -0.021973852 -0.00025098422 0.018817158 -0.024316786 -0.066721156 0.04743808 0.035554517 -0.0718001 -0.014321082 0.015229218 -0.06482073 0.035764914 0.004412281 -0.0038094486 0.048484277 0.06836757 -0.007174285 -0.05973545 -0.04683895 0.01274487 0.03672526 0.09210502 -0.02928784 0.028696196 0.052180015 -0.011822154 0.0032129006 -0.036464088 -0.00475382 0.0005265778 0.0280587 -0.04489707 -0.0020363666 -0.02621203 0.016188255 0.04765124 -0.00021271827 0.0061364206 -0.012867714 0.075731054 -0.020197554 -0.039054353 0.0085485745 0.11027406 0.030945657 -0.045468766 -0.022253124 0.012091148 0.048897587
amid 0.004459499 -0.02878883 -0.019638067 0.01411418 -0.029660333 -0.04020194 0.035716828 0.04332957 -0.050648406 0.008979529 0.0220804 -0.018112479 0.0017199708 0.030085694 -0.02666625 0.016330441 0.035132382 -0.024803657 -0.050651975 -0.018954366 0.019966643 0.015868593 0.03895023 -0.004430055 0.025524462 0.0031659561 0.003248961 -0.004556629 -0.01760144 0.0069510154 0.019904986 0.024719423 0.000965672 -0.010931898 -0.017333232 0.013503791 0.017156357 0.012698814 0.023070736 -0.034213968 0.051104955 -0.0062413323 -0.009641351 0.021634687 0.037213255 0.008172252 -0.017097067 0.0028701394 0.02146575 0.025493931
change -0.032773394 -0.030794675 0.020455563 0.010369839 -0.010499485 -0.06461273 0.060632262 0.08304506 -0.0688373 -0.004256469 0.027148556 -0.09072296 0.042015783 0.0042253295 -0.046022277 0.039946288 0.081856914 -0.003390323 -0.08532726 -0.06731962 0.006265949 0.057062726 0.116514355 -0.01752488 0.06487896 0.047748316 -0.032944255 0.0035126118 -0.06954894 0.0055374866 0.021723786 0.035201505 -0.04929032 0.00072402955 -0.066982634 0.023416499 0.044115007 -0.027275763 0.029446507 -0.019134268 0.08332383 -0.006847521 -0.008495222 0.044013407 0.121469475 0.00852753 -0.051595073 -0.016413156 0.050854877 0.06335963
celebrate 0.015628044 -0.010239897 0.011129691 0.0070191445 -0.013353522 -0.04527608 0.019977205 0.06066492 -0.084293865 -0.029055275 0.010392293 -0.03157339 0.019929457 0.034669004 -0.0061528124 0.052894745 0.04073678 -0.00028733775 -0.06590877 -0.056763228 0.02204139 0.024864212 0.097161934 -0.034787536 0.04072025 0.021618547 -0.034938898 -0.0014819099 -0.025310319 0.0077731125 -0.020436728 0.0002362538 -0.018299252 -0.008577537 -0.02060024 0.0380396 0.006739449 0.014523248 0.04310042 -0.032057922 0.05883606 -0.021030257 -0.008180821 0.04202776 0.093065895 -0.0059866523 -0.028735239 -0.027263764 0.021131897 0.06239834
better -0.008362824 -0.007145273 -0.010273079 0.033297505 -0.03158949 -0.052772366 0.06230553 0.059960414 -0.055487383 -0.025537046 0.014105561 -0.042005386 0.016080283 0.030361375 -0.042930853 0.06407253 0.068690814 -0.0026608424 -0.049162365 -0.041813456 0.003500179 0.041571792 0.09063102 -0.020235369 0.040769942 0.026212817 -0.03365579 0.02299332 -0.030963568 0.009704565 -0.0069430843 0.017280467 -0.042985275 0.024317048 -0.038264927 0.044156104 0.019198934 -0.016263774 0.026858406 -0.021462549 0.047922105 -0.021665545 -0.017777367 0.007398854 0.11092362 0.028901868 -0.047174618 -0.037051734 0.011273301 0.053473134
system 0.0016858348 -0.019552931 -0.014561215 0.042850472 -0.04314855 -0.043030802 0.06578318 0.055026416 -0.09243283 -0.004415846 -0.008391401 -0.06947111 0.042898465 0.002003234 -0.040584914 0.038537007 0.07193415 -0.012682189 -0.07324431 -0.05902427 0.026669022 0.0760652 0.12064687 -0.021649122 0.056360442 0.04831315 -0.01801505 0.015254181 -0.048288774 -0.0009936354 -0.0044602007 0.003613017 -0.012573327 0.00019628955 -0.035372492 0.028667616 0.023990914 -0.021127604 0.02867296 -0.0421411 0.049564935 -0.012494061 -0.012107594 0.038147386 0.101432174 0.03311583 -0.057700846 -0.0355584 0.012933832 0.048684813
impact 0.004913098 -0.03451644 -0.01662399 0.0011594777 -0.002687941 -0.04918523 0.045593195 0.031620126 -0.067228146 -0.013439535 0.0017467348 -0.063230656 0.006584894 0.020928757 -0.0396625 0.04165935 0.049204156 0.0023109587 -0.051087696 -0.030608525 -0.0066127526 0.030896593 0.09376768 -0.01719616 0.029183732 0.03233862 -0.00035936228 -0.014581659 -0.05018739 0.0004059169 0.0021347865 0.032637417 -0.026780654 -0.0037803757 -0.048547305 0.005628018 0.010274119 -0.0219283 0.006977897 -0.027928155 0.052022915 -0.016013905 -0.013188023 0.029081665 0.1046497 0.005385519 -0.024731642 -0.0068140617 0.017214017 0.033972055
sector -0.013102109 -0.025919322 0.012994418 0.032879785 0.0018381535 -0.048367582 0.040744364 0.041451756 -0.03174636 -0.026225604 0.0036713914 -0.046998024 -0.0040393327 0.016223714 0.005974354 0.04053659 0.022853157 -0.00620196 -0.04339735 -0.009369894 -0.013298834 0.051788565 0.044094145 -0.028355418 0.031013386 0.023923507 -0.02915565 0.00015019302 -0.030268906 -0.012489584 0.012736752 0.014888174 0.00029978165 0.023496581 -0.037245747 0.027526721 0.02914093 0.0051963897 0.025009762 -0.02854741 0.045355745 -0.0011930946 -0.011281305 0.0012447713 0.06258928 0.02134128 -0.043546636 0.0028502855 0.021852631 0.033763338
best -0.01911657 -0.016010689 0.014030553 0.032964934 -0.036039848 -0.034609694 0.047541693 0.03446685 -0.05183625 -0.0058506336 0.014337547 -0.039600685 0.0072299326 0.0069683115 -0.026888028 0.037000433 0.057803784 -0.01571931 -0.07440727 -0.045139898 0.014556256 0.050679617 0.10322962 -0.020137524 0.057706065 0.03739544 -0.0033508523 0.0034371796 -0.0426514 -0.010357045 0.013613897 0.021987723 -0.02469221 0.028259585 -0.054272156 0.04802842 0.030989952 -0.015482827 0.012278483 -0.046589177 0.055694416 -0.0015098859 -0.0078223245 0.04297928 0.079064034 0.034814324 -0.057152085 -0.015966393 0.043700144 0.051041733
life -0.025848946 -0.031546365 0.0036495684 0.018520087 -0.040613838 -0.03606731 0.046132322 0.05130531 -0.049974054 -0.0069118673 -0.014189623 -0.035741 0.028284106 -0.0005975779 -0.023472233 0.039807223 0.050582953 -0.015662318 -0.059925433 -0.041434832 0.016558917 0.044056065 0.081589416 -0.014360272 0.030996818 0.0202151 0.0014809591 -0.015270594 -0.046974275 -0.004134121 -0.013952977 0.017135832 -0.0058046826 0.006474208 -0.0165436 0.024985513 0.012422464 -0.013430286 0.016190674 -0.011500135 0.0653986 0.0071985726 -0.029444456 0.0071309055 0.09548532 0.019417057 -0.023110094 -0.01887991 0.03956129 0.030438974
never 0.006417095 -0.034942497 -0.0018531389 0.03819176 -0.04558322 -0.047056843 0.03935592 0.040935896 -0.070956595 -0.015114755 0.0029275545 -0.044292063 0.009519077 0.021032067 -0.0072572636 0.054082055 0.051924694 -0.008069678 -0.07288539 -0.05309734 0.016582234 0.07232464 0.11712791 -0.034317926 0.068601005 0.036270965 -0.008148999 -0.009349752 -0.069942944 -0.004899906 -0.015355246 0.010481455 -0.029543443 0.012234291 -0.06220788 0.017884478 0.017237196 -0.011584891 0.03291372 -0.031483088 0.08608175 -0.015445421 -0.006940207 0.03900003 0.12380202 0.017942872 -0.04326937 -0.022860387 0.010254001 0.080810495
department -0.01364876 0.0026013963 0.004551129 0.022757566 -0.020180905 -0.05712739 0.040154256 0.04253214 -0.07102215 -0.020992862 0.00093178754 -0.051307134 0.02473282 0.017848615 -0.008149423 0.021252496 0.0340205 -0.0017755496 -0.029958997 -0.025132615 0.015653515 0.02539293 0.087234356 -0.030111745 0.017146232 0.049221598 -0.019421581 -0.015675562 -0.04356278 0.011172896 -0.004531725 0.021508336 -0.01969056 0.016967315 -0.02656802 0.0024658535 0.014182898 0.009722184 0.017931798 -0.03396397 0.058240645 0.010632509 -0.00070181163 0.018439727 0.055275943 0.005366619 -0.018465916 -0.031582803 0.040227696 0.022292156
said -0.026710713 -0.025079597 0.014201288 0.0058605745 -0.004471226 -0.065784134 0.050344337 0.051827338 -0.06175685 0.0044093225 0.017236764 -0.049084168 0.030114112 0.02962431 -0.013611787 0.060128618 0.0512925 -0.030448994 -0.06126861 -0.04739487 -0.00625674 0.044141226 0.099346235 -0.030943492 0.050814465 0.04746344 -0.020041473 0.00823496 -0.031727433 -0.015151094 0.008959335 0.031928316 -0.030634422 -0.005160529 -0.054026168 0.007449885 0.033985786 0.0005958641 0.03369976 -0.028324336 0.056620073 0.0005841469 -0.038419288 0.003239871 0.09661159 -0.0010008605 -0.042090338 -0.030587269 0.036274344 0.043486997
global 0.012190879 -0.011186707 -0.008746751 0.008829232 -0.0141857695 -0.047797114 0.049392708 0.05649999 -0.042389803 -0.026494727 -0.0068753837 -0.039203458 0.01421898 0.0022633884 0.00043688295 0.04456429 0.03561082 -0.0048331195 -0.031612936 -0.030865094 0.024018506 0.034169886 0.054507136 -0.01885807 0.016202815 0.050840214 -0.032838218 0.0014000591 -0.040997215 0.0050028907 0.0117565105 -0.006553602 -0.027575716 0.008855848 -0.019973267 0.030285986 0.019722627 -0.009115476 0.00070585805 -0.011971745 0.028645575 0.0009292176 -0.022657098 0.001957465 0.08485469 0.011471277 -0.04816506 -0.03636605 0.02110815 0.023753794
quality -0.0024120782 -0.008061178 0.008950946 0.008555659 -0.004295503 -0.060368612 0.05564461 0.041189924 -0.060131207 -0.005268408 0.0011940341 -0.05493178 0.013549223 0.0023412865 -0.019861018 0.027425205 0.05919742 -0.03161221 -0.057036843 -0.059914753 -0.011564904 0.042441048 0.06159289 -0.030499231 0.0436872 0.03258097 -0.0101621 0.022039061 -0.06072832 0.010598937 -0.01462967 0.026356107 -0.0064258007 0.026765648 -0.047630377 0.030394187 0.008072786 -0.011270972 0.00734314 -0.04096352 0.060738005 0.0033962196 -0.025747837 0.004664257 0.088434905 0.0064872955 -0.0504065 -0.028307188 0.018001707 0.0650183
great -0.020719325 0.004763914 0.01363232 0.0036265648 -0.018065766 -0.03615906 0.03632372 0.02960385 -0.04810634 -0.028343877 0.017620767 -0.053252112 -0.00589512 0.013474585 -0.008020412 0.026879067 0.037398312 -0.0030353703 -0.031719256 -0.015200256 -0.0018055394 0.01748101 0.041888595 0.0024446298 0.031213015 0.014017761 0.0009592124 0.021948664 -0.014471708 -0.0150144035 -0.0089647025 0.0049135783 -0.029626485 0.015427853 -0.011131362 0.005235572 0.03179976 -0.021803929 0.025108648 -0.02757142 0.041563638 -0.011137945 -0.006274112 0.031349257 0.05712387 -6.5213295e-05 -0.041182976 -0.0069940807 0.025652373 0.047619928
use -0.018961793 -0.0356546 0.015463088 0.012337654 -0.013621539 -0.030122781 0.036583763 0.04975426 -0.0701782 -0.02846928 -0.005519183 -0.051985774 0.0063076955 0.012879937 -0.025831673 0.055243842 0.05777114 -0.0023740248 -0.044598214 -0.051522795 -0.0022120022 0.06796327 0.09962895 -0.03862644 0.051715724 0.054364078 -9.044206e-05 -0.0105185285 -0.048755154 0.0009242927 0.0068427175 0.01051259 -0.033983264 0.022763139 -0.02128554 0.025057916 0.015007782 -0.01886705 0.009340406 -0.017083311 0.055611145 -0.009863452 -0.037135508 0.020374566 0.1021282 0.029161548 -0.027654387 -0.026971098 0.043397415 0.05274044
country -0.0087265475 -0.0034011141 -0.012203088 0.034853198 -0.0016317656 -0.03925379 0.05178296 0.055193838 -0.06806627 -0.031833403 0.0084821535 -0.04915457 0.0068155485 0.020543233 -0.010031524 0.027288606 0.06135974 0.002274386 -0.0702681 -0.03796295 -0.008933238 0.032815304 0.10019316 -0.03694738 0.03895606 0.022005087 -0.034218416 -0.008731397 -0.043684043 0.0016903273 -0.015520773 -0.002024708 -0.030714106 0.0059555843 -0.04819644 0.017382989 0.033702698 -0.0033908202 0.033586483 -0.017563855 0.05304106 9.695528e-05 -0.00074871903 0.026552046 0.0922628 0.018209882 -0.05498418 -0.010358311 0.034713797 0.052054957
full 0.005933547 -0.028218618 0.008243828 0.0071667586 -0.041434873 -0.045073275 0.05739722 0.06200518 -0.08554738 -0.0069514383 0.011984875 -0.04573531 0.019798718 0.029881379 -0.008154444 0.027639536 0.03956745 -4.65791e-05 -0.058256924 -0.06687005 0.0011285951 0.053994983 0.109349996 -0.026052281 0.042716812 0.0267943 -0.035758294 0.009915254 -0.049848404 -0.018494558 0.002764647 -0.0021959795 -0.030375337 0.019048024 -0.035429038 0.043403793 0.041969143 -0.01310318 0.030266194 -0.015120396 0.07644893 0.011703951 -0.011430478 0.033736393 0.110109 0.013565827 -0.049297918 -0.005367906 0.029257836 0.045024797
way -0.012605515 -0.0248127 0.02048641 0.027104631 -0.012594266 -0.031270176 0.05933052 0.034662023 -0.074176684 -0.022165058 -0.0012689199 -0.068592265 0.017871242 -0.0011657281 -0.0012753515 0.032540403 0.041173037 -0.028751884 -0.058287017 -0.06272878 0.010628468 0.058621187 0.07702779 -0.004026626 0.03608535 0.021989005 -0.024002612 0.0001605251 -0.058267765 -0.021828912 -0.0073414654 0.010436225 -0.013289571 -0.006588136 -0.043953456 0.027453626 0.021923648 -0.0023185578 0.0141037395 -0.015481741 0.06909995 -0.021206917 -0.011430521 0.034917597 0.084934674 0.02846536 -0.045088958 -0.029837636 0.008648434 0.06964759
find -0.028735416 -0.02098642 -0.0005722925 0.0088209985 -0.00019721924 -0.05451669 0.024515409 0.059784792 -0.07400669 0.0070541655 -0.003392585 -0.033482477 0.017125463 0.0064879116 -0.033972815 0.023846619 0.063145176 0.0004891796 -0.046500366 -0.026369235 0.014264691 0.050799143 0.08172521 -0.03824466 0.0556728 0.017204192 -0.022642659 0.007645605 -0.029588934 -0.019657532 0.004992068 0.02534525 -0.039854422 0.028288644 -0.041312996 0.042606927 0.010595022 0.0049039605 0.036705166 -0.042314876 0.04895084 -0.021513596 -0.00037658378 0.03977796 0.066684864 0.015157211 -0.03621565 -0.034824405 0.02382267 0.0256972
lessons -0.004419488 -0.03280451 0.012183869 0.035972577 -0.0282 -0.052699283 0.02541235 0.05471723 -0.056678604 0.0029136937 0.01249975 -0.055275396 0.025847036 0.033570524 -0.0013090359 0.056729294 0.036250398 -0.028491361 -0.036565397 -0.059726425 0.014192381 0.063529305 0.07635859 -0.005758917 0.023936326 0.049911268 -0.0069891233 0.012831775 -0.06262037 0.017318036 0.016550634 0.01019477 -0.016527085 0.022549821 -0.036913965 0.03556771 0.016900966 -0.012369671 0.015958348 -0.035795175 0.053349763 -0.021142423 -0.010769261 0.04082043 0.097677335 0.02815399 -0.045408532 -0.01059077 0.010135379 0.040360894
remote 0.011129428 0.00034793618 -0.008764672 0.005432461 -0.0034437093 -0.03274767 0.049588937 0.023543507 -0.05390219 -0.012950373 0.0048084096 -0.037231326 0.0030595039 0.021569116 -0.022983173 0.049727716 0.04283785 0.0064620613 -0.044311974 -0.025719255 -0.007731308 0.021638108 0.06964674 -0.02129196 0.053849608 0.039976105 -0.025264181 0.019697115 -0.035548408 -0.020752454 0.012977922 0.008232297 -0.038546618 0.025460484 -0.013042394 0.0387367 0.022654356 0.0073806653 0.02588239 -0.034076393 0.0628743 -0.011656414 -0.034560073 0.03590024 0.06171867 0.029624373 -0.046076883 0.0012748345 0.008701499 0.050419763
across 0.011465357 -0.003353284 -0.0035596937 0.0060681063 -0.036035676 -0.026647005 0.049891025 0.025716312 -0.036960013 0.0022683686 -0.013139877 -0.03425565 0.0017361746 0.004214267 -0.013654051 0.017257508 0.03421922 -0.025331896 -0.05417928 -0.04836833 0.025976878 0.05361069 0.065580726 -0.02067327 0.044273715 0.032132365 -0.032390032 -0.009758391 -0.031794377 0.014330334 0.007813048 0.030691402 -0.004387224 0.008356255 -0.009624153 0.037526008 0.037340708 0.011914439 -0.0038415233 -0.013516945 0.026020119 -0.018824223 -0.031342573 0.023171416 0.06839839 -0.00078498176 -0.016172005 -0.0005426832 0.02772513 0.055152137
among -0.02199802 -0.031570774 0.00924146 0.018724715 -0.04017447 -0.046126485 0.045361202 0.043323215 -0.069463566 -0.0024462964 0.020193804 -0.058966443 0.040941633 0.025677627 -0.011057796 0.046700787 0.06929763 -0.0031311894 -0.08199165 -0.04063015 0.011594914 0.06766039 0.09701446 -0.030181753 0.03821346 0.0394606 -0.02721016 -0.004348905 -0.050751198 0.014437257 0.01259355 0.0005594778 -0.0435626 0.0066591213 -0.03315596 0.011203181 0.04465187 -0.0057035675 0.018509617 -0.012537157 0.08078397 -0.0067722555 -0.012801519 0.0074151987 0.085770026 0.012641726 -0.023618514 -0.019419886 0.041361503 0.046263833
educational 0.0008228591 -0.010702908 -0.0012986747 0.008927357 -0.005811406 -0.05322463 0.044031255 0.04561502 -0.053300157 -0.019716695 -0.010770868 -0.050754044 0.0052174036 0.018901596 -0.025371596 0.028231572 0.024702568 -0.016777351 -0.041513227 -0.04895018 0.012793389 0.056497637 0.07346354 -0.011211262 0.020988584 0.026415002 -0.009470414 0.008651592 -0.016375896 -0.003474688 0.015612943 0.022243805 -0.011889362 0.02131213 -0.036719907 0.011498733 0.034434002 0.009729287 0.021021292 -0.028306408 0.05634793 0.0007795716 -0.014896336 0.03426258 0.07590652 0.020215593 -0.026229395 -0.033637952 0.013071961 0.043316547
workers -0.0218868 0.00048284137 0.01428413 0.0006460509 -0.030941127 -0.052587077 0.039171524 0.03641402 -0.059204847 -0.01803607 0.013014164 -0.024380326 0.008060413 -0.0024531065 -0.009864044 0.023076568 0.062054623 -0.007767063 -0.0626189 -0.054019008 -0.012129596 0.046849877 0.07980685 -0.0122734485 0.037313927 0.03733267 -0.01004974 0.0013930281 -0.05631569 -0.0028141341 0.008072678 0.00694262 -0.024687272 0.0051988806 -0.016255684 0.015172086 0.043038633 -0.015822692 -0.003514993 -0.03699796 0.039535847 -0.0018796311 -0.006418348 0.022650806 0.09656995 0.014939412 -0.019201238 -0.019464444 0.016990187 0.056836136
long -0.0031820454 0.0060511786 -0.014362092 -0.003638524 -0.016111583 -0.035281964 0.025318677 0.03008006 -0.05301527 -0.026404893 0.019881947 -0.042538427 0.008122373 0.0072528576 -0.016387882 0.008465528 0.033800695 -0.011270402 -0.018579602 -0.046907347 -0.0032272928 0.02991402 0.063441314 -0.026515326 0.016436964 0.009728655 -0.0017458766 -0.012514715 -0.036102016 -0.0010859489 0.0032341739 -0.009941823 0.002355492 0.0017137338 -0.02333665 -0.00047613587 0.0018237355 0.0013368428 0.021904655 -0.0102543095 0.048716597 -0.017745784 -0.016058402 0.0103889685 0.057250347 0.020298101 -0.021574525 -0.02941491 0.023494415 0.048153207
hope -0.022251252 -0.006719959 -0.0066615907 0.035890244 -0.010201522 -0.03603386 0.0381042 0.02248727 -0.037324477 -0.01618497 0.020990497 -0.036551517 0.00017353955 0.012726434 -0.013371094 0.030934744 0.06786277 -0.020828974 -0.06065568 -0.031591594 0.00045832203 0.027265523 0.07891122 -0.0068574296 0.024592735 0.025201762 -0.029829048 0.009137339 -0.049365737 0.014481331 0.002366287 0.015836727 -0.026962403 0.023166932 -0.03161851 0.0052314345 0.009130845 -0.00789861 0.032080274 -0.016022522 0.037450448 -0.019108376 -0.037276234 0.027954044 0.058853067 0.019454801 -0.02746721 -0.020876417 0.0018934939 0.057087112
come -0.009968905 -0.035197187 -0.0134814065 0.035935305 -0.015654657 -0.056531098 0.03816201 0.050631966 -0.074708 -0.02653187 0.0037477827 -0.06350204 0.018651448 0.018847728 -0.0017776393 0.03817332 0.05138332 -0.0024449828 -0.05537125 -0.025422167 0.007597789 0.04076375 0.056265984 -0.016889233 0.04987856 0.038082592 -0.032757953 -0.0019315799 -0.052343793 0.010296907 -0.011604134 0.02319395 -0.031334456 -0.0047680913 -0.04588781 0.03017179 0.0062187887 -0.020085089 0.002678492 -0.031577278 0.04039674 -0.0028818937 -0.0037147915 0.017732458 0.06790203 0.01615673 -0.020100944 -0.030029735 0.011274879 0.056166895
using 0.0016143714 -0.031411275 0.018563421 0.0004333424 -0.03710966 -0.05828465 0.049376406 0.045323517 -0.0569495 -0.0011572513 0.016254706 -0.05707804 0.004448496 -0.0008558186 -0.02206436 0.060897738 0.039419018 -0.005074289 -0.043041486 -0.054264303 -0.0064007887 0.037020285 0.07638885 -0.034066916 0.05304914 0.021956235 -0.024087464 0.015976226 -0.04620178 -0.017268075 -0.008423534 0.021804007 -0.020398768 0.0055427807 -0.035193775 0.031589754 0.028414877 -0.015810743 0.029075647 -0.042598646 0.06869618 -0.026552323 -0.023380578 0.03698955 0.08251168 0.028324189 -0.025469074 -0.036678568 0.02462771 0.04260697
resources -0.02770139 -0.018213743 0.013551644 0.039745305 -0.033435117 -0.05268693 0.034511868 0.04946522 -0.06059244 -0.034116164 0.011064081 -0.07086055 0.022780249 0.026857533 -0.03146566 0.04338698 0.053108834 -0.03247475 -0.05956314 -0.03745495 -0.008609265 0.03817237 0.08801949 -0.005041699 0.045880694 0.05913383 -0.034408297 0.023303866 -0.056328945 -0.014285323 -0.013943362 0.018761512 -0.03129565 0.02588639 -0.037435267 0.032319102 0.040641963 -0.027442904 0.0164814 -0.035784915 0.03949096 0.00087046233 -0.0147044035 0.019374704 0.08793006 0.0025983166 -0.043958485 -0.019471783 0.042065565 0.06761547
read -0.015211776 -0.003230818 -0.0042947107 0.0047659664 -0.022328118 -0.044480767 0.037449278 0.016607985 -0.058948662 -0.02050228 0.019493524 -0.031479046 0.025034938 0.028248364 -0.027899925 0.018711671 0.054357182 0.0012957247 -0.027326314 -0.012913969 0.023537619 0.028624274 0.06242852 -0.0027895607 0.04690305 0.04635488 -0.03042276 -0.0060739894 -0.021587037 -0.0001794845 0.0012098763 0.025073651 -0.0031920227 -0.008263507 -0.02995593 0.0007396764 0.032743584 -0.0017340763 0.008624348 -0.014253641 0.053780552 0.01257189 -0.00086929207 0.022431588 0.065517664 0.027547196 -0.0223286 -0.014201189 -0.00106779 0.041180264
world -0.026587699 -0.0012189653 -0.010239417 0.015690446 -0.017366339 -0.04493138 0.021265332 0.049076885 -0.06959218 -0.031620283 0.013983228 -0.046360772 0.0310006 0.00087566045 -0.017229585 0.035073843 0.061150007 -0.030467508 -0.034503482 -0.0579485 -0.0076916725 0.044709872 0.07107141 -0.025306594 0.025930695 0.04285903 -0.03519096 0.00863482 -0.03175725 -0.0028238376 -0.00024703707 0.02663435 -0.04014896 -0.009253033 -0.022546506 0.040478807 0.008474387 -0.025704604 0.014828072 -0.041447982 0.052564066 0.013044431 -0.029743033 0.006668966 0.09773233 0.012348948 -0.03892988 -0.025331458 0.004400173 0.03589918
uk -0.01666182 -0.012773892 0.001220255 0.032717817 -0.0035323086 -0.039220285 0.015693605 0.040607106 -0.062203962 0.007164872 0.012048073 -0.042064764 0.029430836 0.0059350543 -0.023855336 0.032017954 0.060627334 -0.00013126084 -0.03833717 -0.027135964 -0.00016226432 0.057083923 0.052919567 -0.022794604 0.021873897 0.047446396 -0.020983018 -0.0017317425 -0.021535287 -0.020904833 -0.004149377 0.016418811 -0.032258436 0.027296001 -0.026023295 0.010293383 0.031051004 0.00759742 0.016813222 -0.0077121407 0.029251242 -0.011875617 0.0059893276 0.0286355 0.07336123 0.0051211035 -0.019008376 -0.012216579 0.036748756 0.0411863
campus 0.008148434 -0.025095265 -0.013941983 0.014447711 -0.012306283 -0.04205685 0.048941374 0.020567697 -0.069914915 0.00306486 0.018639065 -0.049866393 0.00887329 0.0065382593 -0.01675663 0.052520204 0.047681395 -0.0149367945 -0.05017943 -0.04152227 -0.011588501 0.052451164 0.05233181 -0.022665834 0.019787686 0.05043885 -0.0035175043 0.0034174086 -0.029097775 -0.0067563043 0.020426828 0.0046267947 -0.010083815 0.0010032165 -0.009539142 0.040621195 0.03424205 -0.009024606 0.012257257 -0.038716756 0.06425465 -0.022212189 -0.028727932 0.029674934 0.06905435 0.028306492 -0.045000203 0.00035199057 0.025413208 0.024965135
access 0.00029397523 -0.022563824 0.014267374 0.030587958 -0.035455044 -0.02245311 0.045229334 0.04921166 -0.063213386 -0.02441208 -0.013146105 -0.029408129 0.008734871 0.022566926 -0.006218376 0.049132966 0.047393654 -0.013494906 -0.03805238 -0.02937503 -0.0105296485 0.026569197 0.06499765 -0.0062449677 0.032486912 0.0109254485 -0.015200229 0.018559597 -0.021583332 0.005420497 -0.0076515516 0.0038874142 -0.023167778 -0.0031137527 -0.04520712 0.02012337 0.02408909 0.00155561 0.02248588 -0.0026586752 0.029822692 0.014905974 -0.021494217 0.019821359 0.060609125 0.00456566 -0.030799953 -0.03212688 0.03702988 0.048893113
research -0.013029482 -0.007901533 0.017229129 0.004555548 -0.008463233 -0.03343038 0.03971142 0.030546108 -0.06828906 0.0011297212 0.0007867167 -0.055745706 0.016021874 2.6014455e-05 7.95917e-08 0.017628357 0.03846313 -0.010810318 -0.04904308 -0.04123399 0.02120301 0.04025281 0.046642106 -0.016044589 0.011665396 0.021933187 -0.0040950635 0.01213427 -0.04532217 0.0019294554 0.013268278 -0.0043044924 -0.024239963 0.002093647 -0.045001134 0.024771897 0.033670876 -0.002874538 0.019686587 -0.020733146 0.040184923 -0.01747388 -0.015774487 0.030823288 0.07280382 0.012936957 -0.010882214 -0.011545234 0.004220723 0.05396505
behind 0.0076666987 -0.034872595 0.017008023 0.0078409705 -0.024157695 -0.040919304 0.037513766 0.03399522 -0.08374413 -0.035584915 -0.0057170163 -0.035743978 0.027935963 -0.00045710002 -0.005412222 0.058829978 0.07648255 0.0057783714 -0.07399566 -0.05392766 0.0138292005 0.05615432 0.10276074 -0.037143838 0.054990828 0.06261807 -0.038123216 0.02277708 -0.042476956 -0.011207714 -0.002036009 -0.0016451384 -0.040137902 0.021136334 -0.04412905 0.047578204 0.013517642 -0.024617739 0.0328672 -0.012239011 0.066026144 0.0076684477 -0.008453205 0.012811541 0.11425431 0.0032952705 -0.044372503 -0.035949968 0.03990727 0.04730674
stay -0.0028785977 -0.014213078 -0.0013324319 0.0037835352 -0.027568702 -0.041429278 0.03407216 0.03695375 -0.054085445 -0.006861255 -0.0067449207 -0.018014159 0.012660621 -0.0016217103 -0.019854799 0.04667788 0.03937471 -0.019402377 -0.055403665 -0.046010498 -0.00040975248 0.051612165 0.0491257 -0.011288606 0.03148831 0.036870603 -0.030029742 0.020843005 -0.0399893 0.008973716 -0.017769324 0.021504907 -0.03490981 0.00011074106 -0.028174914 0.011637616 0.018688064 -0.007559775 0.023543721 -0.023883827 0.033111297 -0.017285308 0.001904624 0.02694446 0.08477387 0.022188997 -0.036358025 0.000108377455 0.004623243 0.04476251
important -0.016218072 -0.012328943 0.009074273 0.011352661 -0.026871186 -0.04131423 0.037838 0.050308038 -0.06306342 -0.002431861 -0.0020296616 -0.05752237 0.0057414407 0.017224675 0.0007402926 0.049073275 0.062937036 0.0028614243 -0.049142126 -0.041615847 0.024232447 0.051872395 0.08158607 -0.0030259562 0.036766585 0.036018852 -0.03153473 0.019531617 -0.016953085 -0.016603943 0.0028652777 0.028631376 -0.011713287 0.023208566 -0.013481961 0.016619485 0.04027199 0.0038020362 0.012141669 -0.02085959 0.06379053 0.006638037 -0.028961932 0.011419031 0.065349236 0.01861162 -0.026441261 -0.035647217 0.025330571 0.061553724
lockdown -0.0031608099 -0.0023665219 0.004734742 0.030972173 0.0034839248 -0.025570948 0.026760645 0.038916167 -0.060230408 0.006289286 -0.003457892 -0.015371152 -0.006433603 0.005893933 0.0023734367 0.020211428 0.035335127 0.0011323431 -0.017592872 -0.031775974 -0.008556423 0.05394772 0.04106651 -0.011692888 0.039451476 0.0109830275 -0.023755986 -0.014043644 -0.031565137 0.008693533 -0.01443537 0.0038841038 0.0005248509 -0.002740816 -0.017566694 0.024898216 0.011214382 -0.017807994 0.030032273 -0.023223182 0.05641989 -0.009655166 -0.006457532 0.027221676 0.06346636 0.019496776 -0.036383737 0.001569242 0.014787465 0.027011128
see 0.00079666753 0.0076605096 -0.00930885 0.018807871 -0.009630155 -0.04392015 0.03852342 0.05621805 -0.03676694 -0.024907487 -0.0012026915 -0.023566723 0.01601229 -0.0050409725 -0.018820643 0.020365445 0.048238836 -0.009091042 -0.052462403 -0.04699444 0.024925515 0.049065426 0.07634212 -0.013366973 0.05160067 0.022625348 -0.003224156 0.0026570084 -0.053219385 -0.020992395 -0.0022858242 0.029086849 -0.015004622 -0.009974936 -0.02634318 0.014686767 0.014451982 0.008897048 0.027921168 -0.020251486 0.050312843 -0.0035021347 -0.03594202 0.025380116 0.08807606 0.020555306 -0.02466944 -0.02494562 0.02606063 0.028102286
top -0.0007663036 -0.0071017663 0.00041123448 0.015446873 -0.012161797 -0.03257145 0.0391801 0.055596024 -0.043655112 -0.008992902 -0.0008939882 -0.052840155 -0.0032576302 0.0067838784 -0.008223445 0.048022076 0.045983527 -0.019422827 -0.034631547 -0.04409814 0.004923324 0.056378715 0.08519069 -0.017170208 0.02178962 0.038373742 0.0045514833 0.022768373 -0.03981943 0.012162277 0.019866465 -0.008047316 -2.4376368e-06 0.007209111 -0.03856558 0.027666507 0.04023108 -0.022763027 0.029491534 -0.03390301 0.028487224 0.0063087954 -0.024852274 0.028138136 0.08659944 0.03213863 -0.016544614 -0.035460528 0.027503904 0.023130087
mental -0.008915791 0.007279273 -0.00904694 0.02549208 -0.031115038 -0.056674927 0.054960582 0.045549147 -0.039120756 -0.0071748816 0.0077481135 -0.03607156 -0.00010974554 0.027537214 -0.027465092 0.045025032 0.036840186 -0.010687523 -0.036684383 -0.043553393 -0.007940598 0.02807636 0.052796975 0.0031899968 0.026534835 0.030929795 -0.0347196 -0.00376012 -0.047695816 0.0054711574 0.013639112 0.019338218 3.1063777e-05 0.012032637 -0.009587608 0.037765298 0.029837165 -0.004101319 0.0016764208 -0.026992787 0.058946397 -0.022128776 -0.010502329 0.0027122602 0.09639544 0.01294628 -0.029030709 -0.028794853 0.03422744 0.02985
fall -0.022006754 0.0023524305 -0.0067084385 0.012981641 -0.0048475396 -0.022508727 0.043474168 0.045281123 -0.03258026 -0.02817902 0.015141043 -0.01689687 0.007020366 0.013855545 -0.020546228 0.02190541 0.055527493 -0.010464903 -0.029533241 -0.04203211 0.017764926 0.026712757 0.04841358 -0.010066653 0.047976 0.014355601 -0.0060998886 0.001279815 -0.04581447 -0.009235014 -0.015148861 0.021251727 -0.02224616 -0.003312856 -0.022062618 0.02882867 0.037494354 -0.02701087 0.012620015 -0.019922376 0.032534663 -0.00499547 0.0035388381 0.011567278 0.07976543 0.011557755 -0.026492985 -0.0014233231 0.031448413 0.03601562
let -0.008112838 0.0010786132 -0.0071254983 0.023990387 -0.015831485 -0.0453013 0.045079377 0.024228185 -0.040423602 -0.024773063 0.011002358 -0.02470915 0.025161346 -0.0042018765 -0.027511783 0.043999873 0.046531294 -0.0076550394 -0.05022159 -0.034960337 -0.012328777 0.037102822 0.051828828 -0.012348579 0.038954716 0.032860693 -0.026662657 0.005427139 -0.045596097 -0.009125763 0.0046350583 0.026046867 -0.030049346 0.012404921 -0.008530451 0.037994985 0.031306256 -0.021970307 0.021450872 -0.0009385002 0.04740485 0.0011154318 -0.016498642 0.022643527 0.072240755 0.028827984 -0.033394765 -0.033555295 0.030469066 0.024736486
person -0.010868951 -0.011366347 -0.0011036771 0.011705856 -0.019274646 -0.063140504 0.044391178 0.034384742 -0.07139103 -0.0059360634 0.009317674 -0.04029406 0.020933598 -0.0031036069 0.00045459534 0.031620894 0.047048092 0.0024367967 -0.049251698 -0.036168613 0.012572663 0.050198525 0.093662605 -0.00055473676 0.0381888 0.029458383 -0.008235938 -0.011003857 -0.025211014 0.0027351186 0.012750551 0.019004513 -0.024637394 0.011038225 -0.04262163 0.042119514 0.035911564 -0.001911471 0.007415066 -0.041011088 0.06734356 0.00071987556 -0.026601948 0.0037655598 0.07574161 0.017038433 -0.052027423 -0.020309627 0.02883398 0.028750433
technology -0.008704517 -0.02353191 -0.0062147034 0.011974749 -0.03549846 -0.039748147 0.017499687 0.017813604 -0.041754674 -0.005846531 0.022802686 -0.018181022 0.0011311136 -0.0072875693 -0.00041449597 0.04060716 0.053252637 -0.015532164 -0.048146933 -0.04138546 -0.010387031 0.046367172 0.05432802 0.0029398832 0.018135972 0.04679879 -0.021806398 0.02192315 -0.04345958 -0.016525557 0.016904077 -0.009789383 -0.034647398 0.016761167 -0.044651926 0.028703406 0.025776379 -0.021352394 0.019580053 -0.015553891 0.05670252 0.0015509364 -0.024207104 0.012001529 0.07751762 -0.0020467925 -0.0068434905 -0.022043917 0.007844755 0.028030604
vaccines -0.005271631 -0.034579158 0.007317954 0.01128784 -0.0018844313 -0.053959053 0.028254176 0.050868988 -0.042489883 -0.009387146 0.0022089474 -0.041654263 0.0010204673 0.006874125 -0.029126681 0.042349853 0.04084484 -0.028961333 -0.06390828 -0.03166393 0.013073784 0.063986026 0.08611072 -0.008781708 0.04906325 0.048043195 -0.027908621 0.008604508 -0.04337097 0.008327588 -0.01215608 0.012409596 -0.01373002 -1.9189918e-05 -0.051029056 0.035522822 0.02491689 -0.007838457 0.00640709 -0.0075241188 0.054435767 -0.0015616488 -0.019110473 0.022008896 0.09797255 -0.0043926127 -0.028200548 -0.03310651 0.043019094 0.05834373
list -0.021978099 -0.016850896 -0.009918228 0.0367399 -0.0022417498 -0.037851118 0.06161657 0.03256445 -0.052808452 -0.024831723 -0.010885803 -0.05561232 0.015672399 0.0027681955 -0.029165538 0.039062824 0.05141377 -0.029853417 -0.035549324 -0.038417343 -0.011427389 0.042848084 0.06376828 -0.0028157139 0.036876228 0.05388124 -0.007129856 -0.0024532531 -0.06110918 -0.014272532 0.018833801 0.010081522 -0.021909025 0.009306525 -0.049140994 0.0319387 0.008703602 0.010311843 0.0015757118 -0.0073945485 0.046684008 -0.00906803 -0.0222257 0.022145823 0.08901619 0.016990032 -0.032629624 -0.0058604367 0.009927225 0.031927634
makes -0.022916973 0.0015221918 -0.0025919597 0.0067542032 -0.008159761 -0.052631043 0.040426772 0.057287343 -0.03557828 -0.016881077 0.011416552 -0.030933496 0.035575043 0.0055831685 -0.013959297 0.02298073 0.03626192 -0.010162306 -0.0372813 -0.0464152 0.01683106 0.028217107 0.059686262 -0.03391708 0.049634263 0.03926243 -0.01846581 0.021132119 -0.030698601 -0.021702232 -0.014865214 0.0029660186 -0.034134794 0.023090424 -0.017072603 0.025665525 0.019339323 -0.023091959 0.028087514 -0.028460488 0.039006103 -0.015068873 -0.019037392 -0.00045827887 0.07718072 -0.0016938419 -0.015474193 -0.032559045 0.0071099023 0.04184972
healthcare -0.023602672 -0.0016961268 -0.0072659627 0.017228138 -0.0021131139 -0.029452637 0.03458831 0.049993455 -0.049333718 0.00023817072 0.016840823 -0.05574826 0.019487996 -0.005968869 -0.018630479 0.049109217 0.037523728 -0.021585325 -0.03488821 -0.01995914 0.018632382 0.023505049 0.07966872 -0.00063325476 0.021407526 0.027687278 -0.016742451 -0.015772147 -0.038651578 0.018831868 -0.0035334006 -0.0044629406 -0.026738776 -0.01049256 -0.02310422 0.03239716 0.022874277 -0.013790956 0.035630565 -0.039413508 0.03339792 -0.025014622 0.0052315723 0.012569483 0.057365548 -0.0038677438 -0.011412031 -0.02281063 0.007611981 0.04650065
hard -0.021414177 0.00770834 0.01345687 0.0050164172 -0.021169057 -0.02798692 0.010082039 0.038552232 -0.033456843 0.001954787 -0.013601349 -0.03363788 7.0063776e-05 0.022490716 0.0057843504 0.025749858 0.020357406 0.001112046 -0.03500829 -0.024848903 -0.0067010038 0.03056037 0.05057001 0.002143217 0.0120732775 0.018660668 -0.015181981 -0.0018139594 -0.017668463 -0.0016854003 -0.004365094 -0.008144262 -0.03484596 0.010190477 -0.02431667 -0.002029155 0.03260062 0.008800363 0.025743965 -0.022740427 0.036208864 0.01156406 -0.026080742 4.5543857e-06 0.042624857 0.018346006 -0.042169083 -0.011089535 0.032919906 0.03675208
staff -0.02860616 0.0029599846 0.012320913 0.0020633445 -0.008601699 -0.023546543 0.05230134 0.031433888 -0.043642078 -0.022722147 -0.00970691 -0.03750348 0.006684728 0.010194023 -0.029463828 0.021024289 0.044630952 -0.010810795 -0.043798767 -0.02411315 0.014619466 0.022667555 0.056913115 -0.021702716 0.031407233 0.021028386 0.0014151557 0.013022441 -0.054470558 0.010360876 -0.0017655537 -0.001604687 -0.021410035 0.021594442 -0.040315334 0.015348716 0.018643552 0.0017460764 0.027007064 -0.036626603 0.030967472 -0.006378312 -0.010209976 0.025992492 0.08418371 0.013688841 -0.033790458 -0.011070529 0.021448692 0.0558302
classroom -0.0051561594 0.006949142 -0.0065346644 0.020214424 -0.008368997 -0.043221615 0.04758833 0.04042185 -0.031752884 -0.012923911 0.023934165 -0.025284193 0.0106553165 0.018096903 -0.0020704616 0.042414222 0.03942715 -0.005709597 -0.041108992 -0.040166795 -0.011940315 0.02820617 0.05081246 -0.008394642 0.026964433 0.028345408 -0.001702364 -0.0084954025 -0.014584408 0.012699032 0.013264528 0.01266229 -0.016105657 0.0101496875 -0.037867296 0.0053549185 0.021193272 -0.0065904 0.021583421 -0.025999611 0.045874137 -0.010301391 0.00061065773 0.008347103 0.049834482 0.01475271 -0.025389321 -0.019193178 0.009211372 0.049582124
lives -0.027521843 -0.0020660001 -0.0046739685 0.036509838 -0.009958597 -0.033496693 0.03002749 0.03358994 -0.06137471 -0.016415559 0.018467974 -0.059922483 0.022912193 0.021313112 -0.001397466 0.025157508 0.056345448 -0.030000243 -0.041057345 -0.019571291 0.015294798 0.028324427 0.06302407 -0.032844137 0.033352956 0.04149724 -0.03050064 0.01584657 -0.045231927 0.009006844 0.012531141 0.016457515 -0.021697713 -0.011240781 -0.03913108 0.02200835 0.0019427304 0.011011282 0.02148737 -0.021564092 0.06208436 -0.013410832 -0.012592632 0.019882964 0.08708606 0.016766623 -0.034623247 -0.02558025 0.003661912 0.053099234
say 0.00051417603 -0.0011303971 0.013866284 0.00018944919 -0.000529116 -0.05890063 0.042398553 0.041607916 -0.044290695 -0.031810425 0.012598182 -0.059089538 0.019553246 0.03040561 -0.038883604 0.057905436 0.03286682 0.0010640142 -0.06574852 -0.054498427 -0.0090829 0.056350663 0.07388283 -0.015730616 0.019779865 0.055538524 -0.010469628 -0.004818428 -0.048116945 0.014744434 0.007763948 -0.0068997764 -0.0151924975 -0.0014049623 -0.028195396 0.039954763 0.021694357 -0.008219291 0.029950835 -0.035821382 0.057340134 0.002694345 -0.03649067 0.013209091 0.09806672 0.017833792 -0.013803881 -0.023439033 0.04003777 0.03102044
safety 0.0044055115 -0.026924834 0.0058447737 0.029247528 -0.01830283 -0.0139093585 0.008148707 0.025984129 -0.030106802 -0.01942637 0.018527865 -0.045607265 0.010968558 0.028762728 0.0043354924 0.027246997 0.052994624 -0.029120877 -0.037870225 -0.021974275 1.3469944e-05 0.03917243 0.0662885 -0.02046834 0.021126237 0.04251315 -0.023979638 -0.015258037 -0.027798789 -0.015984675 0.002684969 0.013050252 -0.030689692 0.0051546483 -0.030558137 0.011221007 0.020599624 0.002117145 0.0067235245 0.0021148846 0.034258153 0.011095444 -0.0039432617 0.022169681 0.0723805 0.0013317377 -0.021567557 -0.021324513 0.023322122 0.01870041
elearning -0.011541336 0.004914407 -0.005205999 0.02125883 -0.014601191 -0.026371982 0.027216597 0.012138908 -0.02317508 0.0044700415 -0.015250636 -0.046499133 0.017223032 0.011256975 -0.01892613 0.044157315 0.017444314 -0.014822059 -0.019159812 -0.030023532 -0.006030349 0.04940705 0.0678597 -0.021786077 0.011370546 0.022707924 0.005201068 -0.0009071434 -0.01912889 -0.0056034448 0.008805725 0.0060247774 -0.0027323202 0.02682205 -0.03956483 0.029529791 0.0013731387 -0.025022019 0.023648238 -0.012128889 0.046341404 -0.023259068 0.0049215704 -0.0021556977 0.044023797 0.013762575 -0.031188758 -0.00836067 0.0058477903 0.020324165
disease 0.008710962 -0.0104580615 0.012593206 0.001756827 -0.009672415 -0.007980026 0.030239865 0.013613316 -0.042912573 -0.009066661 0.016204897 -0.0044239475 -0.006079844 0.013176164 0.0128477 -0.0016477165 0.019808691 -0.004069016 -0.031363145 -0.02651946 0.012971447 0.0080830995 0.02008432 -0.0027717988 0.034241736 0.028214112 -0.018148094 -0.0047701197 0.0032577664 0.0009968637 -0.008499317 -0.012116971 -0.020357879 0.015889969 -0.007840063 -0.0029565042 0.02235185 -0.00803594 0.007417158 -0.019471122 0.026913939 -0.0021564807 -0.0023021556 -0.0009981248 0.02537502 0.0042624944 -0.020489244 -0.010578481 0.025068888 0.022226755
rise 0.005189124 -0.0027593428 0.0043360274 0.016128562 0.0033433407 -0.020659525 0.015412203 0.047088966 -0.05423476 -0.010821243 -0.015114031 -0.052254673 0.0058734976 0.023442311 -0.009622855 0.026042912 0.024806889 0.0031907372 -0.019015893 -0.016091233 0.0030680592 0.013936835 0.07455366 -0.017985575 0.032490507 0.035253476 0.0070772204 0.0009861024 -0.040617347 -0.0028502678 0.006674677 0.009576542 -0.019571954 0.02720441 -0.019278858 0.006991737 0.036504734 -0.021285033 0.0070177293 -0.006765073 0.02400015 0.010496897 -0.024772774 -0.004109878 0.040980883 0.015672285 -0.011798211 -0.0007192127 0.02327055 0.044308305
positive -0.00817071 -0.025669927 0.02203459 0.000998524 -0.00096749095 -0.033318423 0.02817829 0.025621908 -0.026712986 -0.023146229 0.008106417 -0.033823412 0.01639276 -0.0018225921 -0.031406455 0.010628695 0.028857049 -0.009843526 -0.047836453 -0.012439138 0.010736231 0.018470263 0.047625147 -0.025727676 0.011400897 0.026195459 -0.015089763 0.021706175 -0.021524627 -0.0024915647 0.019384407 -0.0021227535 -0.034533147 0.010132084 -0.035344243 0.010502591 0.022437146 -0.022423118 0.009459816 -0.0120353075 0.03969138 -0.006631715 -0.014828859 0.033953056 0.06641594 0.0057132943 -0.034919783 -0.028609125 0.013914065 0.028136633
